SVM-light Version V6.01
0 # kernel type
3 # kernel parameter -d 
1 # kernel parameter -g 
1 # kernel parameter -s 
1 # kernel parameter -r 
empty# kernel parameter -u 
143017 # highest feature index 
137772 # number of training documents 
4576 # number of support vectors plus 1 
-0.36851038 # threshold b, each following line is a SV (starting with alpha*y)
-0.20973554581159239984522457689309 57715:1 88665:1 88869:1 118702:1 140542:1 #
-0.15603212490948167867621521054389 88665:1 89879:1 93470:1 117420:1 140542:1 #
-0.11328047923286958809097058065163 12619:1 28646:1 93187:1 95820:1 109900:1 122466:1 138008:1 140542:1 #
-0.01717244935572744685137180908896 34954:1 53483:1 79774:1 95820:1 105425:1 109901:1 122466:1 140544:1 #
-0.085182120388795551368943392844812 48386:1 83933:1 88662:1 114941:1 117923:1 121077:1 122455:1 140547:1 #
-0.01717244935572767930431758998111 33509:1 79774:1 95820:1 105425:1 109901:1 119023:1 122466:1 140544:1 #
-0.24155948008871602761260533043242 36900:1 78187:1 88662:1 121481:1 140542:1 #
-0.10170462295526894180852650606539 44973:1 62286:1 95820:1 109900:1 122466:1 125334:1 140542:1 142964:1 #
0.16666362941046530821154192381073 95820:1 104940:1 108181:1 109900:1 122466:1 128118:1 131361:1 140544:1 #
0.095000625551324283102339052220486 50872:1 53069:1 78981:1 109897:1 111000:1 121077:1 122455:1 140546:1 #
-1 927:1 53764:1 69330:1 75666:1 90066:1 95820:1 #
-1 9813:1 53764:1 67432:1 75666:1 90066:1 95820:1 #
1 13110:1 24136:1 88869:1 109900:1 140543:1 #
1 24136:1 39636:1 65432:1 109900:1 121077:1 122360:1 139516:1 140543:1 #
0.63214523932142563378278055097326 28265:1 37955:1 68600:1 71881:1 88665:1 121077:1 139516:1 140542:1 #
1 39969:1 88665:1 117420:1 134086:1 140542:1 #
1 25589:1 39969:1 78188:1 88665:1 140542:1 #
-0.84198817378964285751408169744536 67922:1 78188:1 101023:1 109897:1 140545:1 #
-0.43138978961767293629492314721574 25589:1 39969:1 78188:1 88665:1 140542:1 #
-0.41583939427645982833681159718253 39969:1 88665:1 117420:1 134086:1 140542:1 #
0.67158731202354315925617811444681 927:1 53764:1 69330:1 75666:1 90066:1 95820:1 #
-1 26425:1 75666:1 82315:1 90066:1 95820:1 139516:1 #
-1 51206:1 75666:1 89978:1 90066:1 95820:1 139515:1 #
-1 1341:1 75666:1 90066:1 90121:1 95820:1 104788:1 #
1 88665:1 111377:1 117420:1 127168:1 140542:1 #
1 28382:1 78188:1 98789:1 109900:1 140542:1 #
1 34448:1 76273:1 78190:1 88665:1 140542:1 #
-0.56455238822791020680824658484198 25589:1 39969:1 78188:1 88665:1 140542:1 #
1 9813:1 53764:1 67432:1 75666:1 90066:1 95820:1 #
-0.4646015325287995989533840202057 7362:1 24136:1 51944:1 95820:1 109900:1 122466:1 133094:1 140543:1 #
-0.9091128032119007995603965355258 46532:1 83876:1 95820:1 108181:1 109900:1 122466:1 128118:1 140544:1 #
-0.0076050358668551072335861640283383 54472:1 95820:1 109901:1 122466:1 124558:1 132106:1 139919:1 140546:1 #
-0.049316921876673448787986586694387 4663:1 81544:1 95820:1 109900:1 122466:1 124253:1 140543:1 141374:1 #
-0.15573568343054258744651008328219 11818:1 13200:1 88665:1 117420:1 140542:1 #
-0.93829824468889166944052249164088 39969:1 88665:1 117420:1 134086:1 140542:1 #
-1 927:1 53764:1 69330:1 75666:1 90066:1 95820:1 #
0.036099883220402202710364036875035 35886:1 100948:1 109909:1 117420:1 140543:1 #
0.13428639336708408924536684025952 73992:1 109896:1 117420:1 118722:1 140543:1 #
0.13428639336708406148979122463061 8946:1 84431:1 109896:1 117420:1 140543:1 #
0.42322606067703860688311578996945 87533:1 88662:1 99713:1 117420:1 140543:1 #
-0.052155604034747671260419110694784 25500:1 88665:1 94417:1 117420:1 140542:1 #
-0.21671956350466689555922528143128 7831:1 88665:1 91171:1 117420:1 140542:1 #
-0.052036587931489096392478899133494 21287:1 27289:1 88665:1 117420:1 140542:1 #
-0.052135139961666999985911985504572 75777:1 88665:1 117420:1 137182:1 140542:1 #
-1 88662:1 90817:1 117420:1 140548:1 142527:1 #
-0.017209420180870949740326025789727 79774:1 84521:1 95820:1 105425:1 109901:1 116012:1 122466:1 140544:1 #
-0.20705707189801070278178940498037 33729:1 62858:1 81675:1 95820:1 109900:1 122466:1 130152:1 140542:1 #
-0.1327751218972732516476753517054 51432:1 71731:1 95820:1 108221:1 109901:1 122466:1 135552:1 140545:1 #
0.17292521790192733055491203231213 78217:1 95820:1 108181:1 109900:1 122466:1 128118:1 140544:1 142789:1 #
0.20081188365671520656974280427676 2450:1 25417:1 95820:1 108181:1 109900:1 122466:1 128118:1 140544:1 #
-0.79864486870494166836920157948043 95820:1 97082:1 98943:1 108181:1 109900:1 122466:1 128118:1 140544:1 #
-1 95820:1 108181:1 109900:1 122466:1 126779:1 128118:1 137962:1 140544:1 #
-0.69157799207308912059488648083061 31369:1 43682:1 95820:1 108181:1 109900:1 122466:1 128118:1 140544:1 #
0.91605500182574739476137892779661 88662:1 90817:1 117420:1 140548:1 142527:1 #
-0.39552556076359846048973167853546 71928:1 88662:1 95221:1 117420:1 140543:1 #
0.28281084345843804372933050217398 95820:1 103975:1 107516:1 108181:1 109900:1 122466:1 128118:1 140544:1 #
0.20076595638806687960098429357458 95820:1 108181:1 109900:1 118349:1 122466:1 128118:1 140544:1 142961:1 #
0.20135513129506565910276094655273 95820:1 108181:1 109900:1 119642:1 120648:1 122466:1 128118:1 140544:1 #
0.3095544379881601804171964431589 45488:1 95820:1 108181:1 109900:1 122466:1 128118:1 130940:1 140544:1 #
0.17297393484876594227372947898402 95820:1 108181:1 109900:1 122466:1 128118:1 136994:1 140544:1 140702:1 #
-0.5506618993114376081621230696328 15246:1 37728:1 95820:1 108181:1 109900:1 122466:1 128118:1 140544:1 #
-0.7986272833099929968625474430155 84104:1 95820:1 108181:1 109900:1 122466:1 126002:1 128118:1 140544:1 #
-0.53563193009144438594404391551507 53227:1 95820:1 108181:1 109900:1 122466:1 122588:1 128118:1 140544:1 #
-0.7986609965924897913680524652591 55714:1 95820:1 107396:1 108181:1 109900:1 122466:1 128118:1 140544:1 #
-0.31005895708479958017278477200307 19615:1 62272:1 88662:1 117420:1 140542:1 #
0.20081188365671429063574748852261 57725:1 95820:1 108181:1 109900:1 122466:1 128118:1 138483:1 140544:1 #
0.20081969637172983333961440166604 2448:1 18017:1 95820:1 108181:1 109900:1 122466:1 128118:1 140544:1 #
0.33388114890014841673604450988933 6517:1 26645:1 95820:1 108181:1 109900:1 122466:1 128118:1 140544:1 #
0.20077262549963570403832591182436 71158:1 85217:1 95820:1 108181:1 109900:1 122466:1 128118:1 140544:1 #
0.33540695948125209824297598970588 3520:1 52603:1 95820:1 108181:1 109900:1 122466:1 128118:1 140544:1 #
-0.7986160051338203613724431306764 51861:1 95820:1 108181:1 109900:1 122466:1 128118:1 132857:1 140544:1 #
-1 31678:1 85635:1 95820:1 108181:1 109900:1 128118:1 139515:1 140544:1 #
-0.93575245730499811980251934073749 80323:1 95820:1 108181:1 109900:1 119164:1 122455:1 128118:1 140544:1 #
-0.8730054688901567327974362342502 6377:1 95820:1 108181:1 109900:1 127402:1 128118:1 139519:1 140544:1 #
-0.92008396279643711590523480481352 10700:1 95820:1 102406:1 108181:1 109900:1 128118:1 139521:1 140544:1 #
-0.51348866168742679505498927028384 25847:1 34762:1 109900:1 117420:1 140548:1 #
0.85068578959132956640587508445606 1341:1 75666:1 90066:1 90121:1 95820:1 104788:1 #
-0.082229497277455876336205164989224 36599:1 46935:1 75768:1 95820:1 99821:1 109901:1 122466:1 140545:1 #
0.094883870248673757297197539628542 18592:1 34156:1 95820:1 108181:1 109900:1 128118:1 139521:1 140544:1 #
0.12694027530950308113588675951178 68350:1 95820:1 108181:1 109900:1 128118:1 136593:1 139519:1 140544:1 #
-0.91700118771806105044674950477201 1341:1 95820:1 108181:1 109900:1 112188:1 128118:1 130172:1 140544:1 #
-0.74963703409267234967217063967837 1341:1 95820:1 105424:1 108181:1 109900:1 126559:1 128118:1 140544:1 #
-1 9813:1 53764:1 67432:1 75666:1 90066:1 95820:1 #
-0.12484297426983997914007318286167 25604:1 44648:1 49545:1 95820:1 97000:1 109900:1 122466:1 140542:1 #
-0.12484297426984058976273672669777 11902:1 25604:1 49545:1 61968:1 95820:1 109900:1 122466:1 140542:1 #
-0.07836812807392097568470745727609 45253:1 73757:1 81393:1 95820:1 100115:1 109900:1 122466:1 140542:1 #
-0.12484297426984014567352687663515 25604:1 49545:1 55421:1 59302:1 95820:1 109900:1 122466:1 140542:1 #
0.0045933607681122659571748556572857 29856:1 72899:1 81406:1 88651:1 95820:1 120248:1 122466:1 140542:1 #
-1 88662:1 90817:1 117420:1 140548:1 142527:1 #
-0.38592386674914819222337314386095 10802:1 78188:1 109897:1 118595:1 140542:1 #
-0.051730442295532461094431653236825 10802:1 78191:1 109897:1 118603:1 140542:1 #
0.87022669431150434515842562177568 1341:1 18540:1 75666:1 90066:1 95820:1 105424:1 #
0.99987572444769701185407484445022 9813:1 53764:1 67432:1 75666:1 90066:1 95820:1 #
-1 1341:1 49308:1 75666:1 90066:1 94531:1 95820:1 #
-1 1341:1 55560:1 75666:1 90066:1 95820:1 140367:1 #
0.99989816491714411661462236224907 88662:1 90817:1 117420:1 140548:1 142527:1 #
-1 58624:1 86987:1 117420:1 #
-0.7828050268762796193300346203614 11390:1 27032:1 117420:1 #
-0.10732739480476699567290665982 2883:1 14472:1 51076:1 95820:1 97540:1 109900:1 139521:1 140542:1 #
0.55222175177573840088030010520015 1341:1 42357:1 81795:1 84533:1 95820:1 98252:1 109900:1 140542:1 #
1 1341:1 9104:1 81795:1 84533:1 95820:1 109900:1 124448:1 140542:1 #
0.17552660134687983473078531915235 1341:1 5387:1 34406:1 83183:1 88148:1 95820:1 109900:1 140542:1 #
0.29545705932017568562386600206082 730:1 1341:1 31042:1 70944:1 94586:1 95820:1 109900:1 140542:1 #
0.4909683824776799321298881295661 1341:1 65254:1 74491:1 93025:1 95820:1 109900:1 129963:1 140542:1 #
-0.69314967175017627720734481044929 1341:1 50013:1 74491:1 81795:1 84533:1 95820:1 109900:1 140542:1 #
-0.11884567035144925906120505487706 1341:1 31819:1 81795:1 84533:1 95820:1 109900:1 116787:1 140542:1 #
0.28185220562264767796278874811833 36377:1 70447:1 75666:1 81630:1 121077:1 122455:1 #
0.058434335975749512881449732049077 21149:1 36377:1 75666:1 121077:1 124218:1 139515:1 #
0.11645061368544959434778718332382 21149:1 72664:1 84316:1 88662:1 121077:1 130000:1 139515:1 140547:1 #
0.15123619211276154161716078760946 39136:1 52801:1 68440:1 88662:1 98354:1 121077:1 139515:1 140547:1 #
0.26475519181916912225815963211062 74422:1 88662:1 117420:1 124192:1 140544:1 #
-1 33008:1 86824:1 95820:1 109896:1 111552:1 133377:1 139515:1 140546:1 #
-0.84459314559460374471910881766235 15123:1 28895:1 36979:1 88665:1 94995:1 95820:1 122466:1 140544:1 #
0.55173046005479153830464156271773 1341:1 31336:1 81795:1 84533:1 95820:1 109900:1 127271:1 140542:1 #
0.5380559012597454504600591462804 1341:1 9252:1 22322:1 81795:1 84533:1 95820:1 109900:1 140542:1 #
0.5522217517757382898579976426845 1341:1 72126:1 81795:1 84533:1 95820:1 104488:1 109900:1 140542:1 #
0.55222175177573717963497301752795 1341:1 26412:1 34615:1 81795:1 84533:1 95820:1 109900:1 140542:1 #
-0.62640850927466340536398092808668 1341:1 16617:1 81795:1 84533:1 86897:1 95820:1 109900:1 140542:1 #
-0.089754423716594450288752682354243 1341:1 81795:1 84533:1 94912:1 95820:1 103509:1 109900:1 140542:1 #
-0.62415751952301146143753385331365 1341:1 81795:1 84533:1 95820:1 109900:1 113346:1 134359:1 140542:1 #
0.033647043985791623421643947722259 21134:1 33008:1 88977:1 95820:1 109896:1 122466:1 133377:1 140546:1 #
0.14955329070561673709960359701654 33008:1 92018:1 95820:1 109896:1 122466:1 133377:1 137339:1 140546:1 #
0.096877590306643890372129135357682 28406:1 33008:1 95820:1 109896:1 122466:1 131690:1 133377:1 140546:1 #
-0.017202474581788713275942725999812 13543:1 59502:1 79774:1 95820:1 105425:1 109901:1 122466:1 140544:1 #
-0.017172449355727641140401118491354 8902:1 79774:1 92146:1 95820:1 105425:1 109901:1 122466:1 140544:1 #
-1 66742:1 78203:1 95820:1 96860:1 102588:1 139521:1 #
-1 1341:1 9104:1 27977:1 49166:1 95820:1 109896:1 140547:1 141087:1 #
-0.14702292957740228929175430039322 51974:1 54472:1 95820:1 109901:1 123542:1 132106:1 139521:1 140546:1 #
-0.11807052149580631039693656703093 9923:1 54472:1 95820:1 109901:1 132106:1 136261:1 139521:1 140546:1 #
0.55222473842829833401424366456922 1341:1 7110:1 81795:1 84533:1 95820:1 109900:1 131262:1 140542:1 #
0.55222668043378009272714734834153 1341:1 21110:1 81795:1 84533:1 95820:1 109900:1 139496:1 140542:1 #
0.55218707897786345473178926113178 1341:1 32359:1 34567:1 81795:1 84533:1 95820:1 109900:1 140542:1 #
1 46532:1 47464:1 81795:1 84533:1 95820:1 109900:1 122466:1 140542:1 #
1 8041:1 81795:1 84533:1 95820:1 109900:1 122466:1 137962:1 140542:1 #
-0.28649662375944945358341442442907 81795:1 84014:1 84533:1 95820:1 101139:1 109900:1 122466:1 140542:1 #
-0.28659641953661829649746550785494 12742:1 54941:1 81795:1 84533:1 95820:1 109900:1 122466:1 140542:1 #
-0.28658324682402708249995271216903 4638:1 16493:1 81795:1 84533:1 95820:1 109900:1 122466:1 140542:1 #
-0.67063990772001658147161151646287 81795:1 84533:1 95403:1 95820:1 109900:1 122466:1 129182:1 140542:1 #
-0.28644415480452245503784070024267 38811:1 57806:1 81795:1 84533:1 95820:1 109900:1 122466:1 140542:1 #
0.80876297108526529200389632023871 66742:1 78203:1 95820:1 96860:1 102588:1 139521:1 #
0.88192947850418601518640571157448 178:1 54472:1 91082:1 95820:1 109901:1 132106:1 139521:1 140546:1 #
0.58418843165820566465384899856872 41996:1 76297:1 95820:1 109901:1 121372:1 134520:1 139521:1 140549:1 #
-0.1180705214958068655084488796092 54472:1 95820:1 109901:1 121612:1 125296:1 132106:1 139521:1 140546:1 #
-0.16551849068117355234797116736445 14562:1 23890:1 69129:1 95820:1 109901:1 125862:1 139521:1 140546:1 #
-0.16561493084232420391899154310522 12150:1 23890:1 59786:1 95820:1 109901:1 125862:1 139521:1 140546:1 #
-0.024335145857287392850976104341498 31496:1 40286:1 95820:1 102285:1 109901:1 117545:1 139521:1 140546:1 #
0.50195178144318897128783873995417 15123:1 44748:1 81795:1 84533:1 95820:1 109900:1 122466:1 140542:1 #
1 81795:1 84533:1 95820:1 109900:1 122466:1 139215:1 139808:1 140542:1 #
-0.33074573328847278741449144945364 2184:1 81795:1 84533:1 95820:1 109900:1 122466:1 137824:1 140542:1 #
-0.28658059753382797429921424736676 47369:1 76987:1 81795:1 84533:1 95820:1 109900:1 122466:1 140542:1 #
-0.28661590765680788894798070032266 18558:1 81795:1 84533:1 95820:1 109900:1 122466:1 126344:1 140542:1 #
-0.39040132223758178264816365299339 11272:1 81795:1 84533:1 95820:1 109900:1 122466:1 136732:1 140542:1 #
-0.28711416450770144148663121086429 33802:1 52133:1 81795:1 84533:1 95820:1 109900:1 122466:1 140542:1 #
0.86049678918421512729963751553441 23890:1 62031:1 95820:1 109901:1 125862:1 125934:1 139516:1 140546:1 #
0.63853423331394165707308729906799 23890:1 57035:1 95820:1 109901:1 125862:1 139515:1 140546:1 142951:1 #
-0.16561493084232448147474769939436 5941:1 23890:1 82058:1 95820:1 109901:1 125862:1 139521:1 140546:1 #
0.035108875411386596121499081846196 2205:1 23348:1 75666:1 90066:1 95820:1 122466:1 #
-0.031494702515096610617728600800547 23890:1 58546:1 95820:1 105787:1 109901:1 125862:1 139516:1 140546:1 #
-0.13949154026574861475751276884694 23890:1 30801:1 61261:1 95820:1 109901:1 125862:1 139516:1 140546:1 #
0.71284385287763529781557281239657 44706:1 81795:1 84533:1 92152:1 95820:1 109900:1 122466:1 140542:1 #
0.52368620440815638605869253296987 6992:1 81795:1 84533:1 84739:1 95820:1 109900:1 122466:1 140542:1 #
0.71287600743112333745443720545154 51399:1 61998:1 81795:1 84533:1 95820:1 109900:1 122466:1 140542:1 #
1 4313:1 81795:1 84533:1 95820:1 109900:1 122466:1 122799:1 140542:1 #
0.78731878782112174608442956014187 38945:1 49149:1 81795:1 84533:1 95820:1 109900:1 122466:1 140542:1 #
-0.28713208880539792255959241629171 81795:1 84533:1 95820:1 101994:1 107832:1 109900:1 122466:1 140542:1 #
0.015917890816105079859754667381821 33008:1 95820:1 109896:1 133377:1 135569:1 136645:1 139516:1 140546:1 #
0.82843101985291611732975525228539 23890:1 25582:1 95820:1 109901:1 122458:1 125862:1 136476:1 140546:1 #
-0.86274641758855064033184589789016 1341:1 39969:1 88665:1 95820:1 97455:1 105424:1 122826:1 140542:1 #
-0.69390462110606720980143791166483 1341:1 19711:1 58712:1 88662:1 90117:1 95820:1 105424:1 140543:1 #
0.71286029705372944142993674176978 1545:1 42324:1 81795:1 84533:1 95820:1 109900:1 122466:1 140542:1 #
0.71284385287763485372636296233395 4713:1 9991:1 81795:1 84533:1 95820:1 109900:1 122466:1 140542:1 #
0.71292776005488756041472697688732 4075:1 81795:1 84533:1 95820:1 97923:1 109900:1 122466:1 140542:1 #
0.71288583549230255531625743969926 65976:1 80887:1 81795:1 84533:1 95820:1 109900:1 122466:1 140542:1 #
0.71288583549230211122704758963664 34348:1 65698:1 81795:1 84533:1 95820:1 109900:1 122466:1 140542:1 #
-0.28712399256887993770348543876025 62498:1 81795:1 84533:1 95820:1 109900:1 122466:1 128187:1 140542:1 #
-1 78203:1 83183:1 88148:1 95820:1 109900:1 139521:1 140542:1 141344:1 #
-0.97851716936947574776439751076396 29543:1 66742:1 73528:1 95820:1 96860:1 139526:1 #
-0.70435439093516205577572009133291 18635:1 66742:1 95820:1 96860:1 122466:1 130310:1 #
-0.011137690893614916876064313555617 6016:1 26950:1 54472:1 95820:1 109901:1 122466:1 132106:1 140546:1 #
-0.011088049626137840356077113312949 13972:1 54472:1 56006:1 95820:1 109901:1 122466:1 132106:1 140546:1 #
-0.029969096229734787373288895651058 5116:1 32612:1 43162:1 44078:1 95820:1 109901:1 122466:1 140545:1 #
-0.029969096229734613900941297970348 5116:1 14411:1 43162:1 49849:1 95820:1 109901:1 122466:1 140545:1 #
-0.02996909622973501288734077263598 5116:1 14725:1 43162:1 68144:1 95820:1 109901:1 122466:1 140545:1 #
-1 39969:1 88665:1 95820:1 97455:1 134533:1 139515:1 140542:1 140566:1 #
-1 22591:1 39969:1 88665:1 95820:1 97455:1 122455:1 134716:1 140542:1 #
-0.66242512455924940084628360636998 39969:1 55804:1 61708:1 88665:1 95820:1 97455:1 122455:1 140542:1 #
-1 39969:1 85635:1 88665:1 95820:1 97455:1 112927:1 139515:1 140542:1 #
0.3334572700522154820035325428762 19711:1 51974:1 88662:1 90117:1 95310:1 95820:1 139521:1 140543:1 #
0.88974040315179114823962436275906 78203:1 83183:1 88148:1 95820:1 109900:1 139521:1 140542:1 141344:1 #
0.12215911093496772954480888984108 19711:1 48847:1 88662:1 90117:1 95820:1 131658:1 139521:1 140543:1 #
0.12214814700927004165187383932789 19711:1 88662:1 90117:1 93887:1 95820:1 139521:1 140543:1 142074:1 #
-0.71718604400854535363407649128931 64366:1 71654:1 83183:1 88148:1 95820:1 109900:1 139521:1 140542:1 #
0.84154941565615493104246525035705 39969:1 88665:1 95820:1 97455:1 134533:1 139515:1 140542:1 140566:1 #
0.069260819632269710055538780579809 3139:1 5760:1 39969:1 88665:1 95820:1 97455:1 139519:1 140542:1 #
0.0067904381592626909119880806997571 39969:1 42967:1 68499:1 88665:1 95820:1 97455:1 122455:1 140542:1 #
0.0067904381592624124888701864222185 37650:1 39969:1 88665:1 95820:1 97455:1 113108:1 122455:1 140542:1 #
0.0067904381592628132099931370646573 39969:1 49333:1 67633:1 88665:1 95820:1 97455:1 122455:1 140542:1 #
-1 1552:1 13934:1 39969:1 88665:1 95820:1 97455:1 108731:1 140542:1 #
-0.33086379122428305477043863902509 39969:1 55804:1 61708:1 88665:1 95820:1 97455:1 122455:1 140542:1 #
1 78188:1 108181:1 109900:1 128081:1 140544:1 #
0.088872948443713836730317723322514 18408:1 56791:1 95820:1 108181:1 109900:1 122458:1 128118:1 140544:1 #
0.08887294844371317059650294822859 11:1 39352:1 95820:1 108181:1 109900:1 122458:1 128118:1 140544:1 #
-0.15840710113155817562180516233639 2018:1 41920:1 95820:1 106738:1 109901:1 122466:1 137355:1 140547:1 #
-0.097728345328642107769923086380004 53349:1 69966:1 95820:1 109901:1 121372:1 122455:1 134520:1 140549:1 #
-0.079407422616637676759943076376658 507:1 69941:1 95820:1 109901:1 117075:1 137533:1 139516:1 140545:1 #
-0.099003780229035304172313658455096 51819:1 56425:1 81702:1 95820:1 102304:1 109900:1 122466:1 140542:1 #
-0.85620012840239212437154492363334 29195:1 39969:1 88665:1 95820:1 97455:1 121847:1 122466:1 140542:1 #
-0.85614632400107859577786939553334 39969:1 88665:1 95820:1 97455:1 116658:1 122466:1 127872:1 140542:1 #
-0.90517583050181338322204283031169 39461:1 39969:1 88665:1 89637:1 95820:1 97455:1 122466:1 140542:1 #
0.33561030972572525321595549030462 25433:1 44031:1 83183:1 88148:1 95820:1 109900:1 122466:1 140542:1 #
0.33563412883493431992931732565921 14403:1 54529:1 83183:1 88148:1 95820:1 109900:1 122466:1 140542:1 #
0.33565634881147354828812012783601 26852:1 83183:1 88148:1 95820:1 109900:1 122466:1 137202:1 140542:1 #
0.33565617292153493433914945853758 10647:1 71252:1 83183:1 88148:1 95820:1 109900:1 122466:1 140542:1 #
-0.64686491321439287816019714227878 83183:1 88148:1 95820:1 98369:1 109900:1 122466:1 122704:1 140542:1 #
0.14333506357492370453243779593322 31574:1 39969:1 87856:1 88665:1 95820:1 97455:1 122466:1 140542:1 #
-0.095364065850309903682457957074803 14368:1 18949:1 60711:1 95820:1 109901:1 110507:1 122455:1 140544:1 #
-0.017172449355727145009486989124525 2226:1 79774:1 95820:1 105425:1 109901:1 122466:1 140544:1 142060:1 #
-0.095364065850309862049094533631433 18949:1 45412:1 95820:1 109901:1 110507:1 116902:1 122455:1 140544:1 #
0.64298441940896999824417434865609 1252:1 78203:1 81795:1 84533:1 95820:1 109900:1 139521:1 140542:1 #
-0.058284913181965353201618995626632 3022:1 63620:1 64509:1 88665:1 95820:1 122466:1 122588:1 140542:1 #
-0.39657983859537465631817099165346 53353:1 78203:1 95820:1 97691:1 109900:1 139521:1 139554:1 140542:1 #
-0.16451033208793891526866559615883 51974:1 81544:1 95820:1 100491:1 109900:1 124253:1 139521:1 140543:1 #
0.14385956639507677112810313246882 2102:1 39969:1 88665:1 95820:1 97455:1 115135:1 122466:1 140542:1 #
0.14385956639507641030562012929295 16882:1 39969:1 88665:1 95820:1 97455:1 122466:1 131116:1 140542:1 #
0.38015625623633381158228417007194 32568:1 69314:1 81544:1 95820:1 109900:1 124253:1 139526:1 140543:1 #
0.21193144568245711467646685832733 95820:1 97211:1 98536:1 100101:1 103226:1 109900:1 139521:1 140543:1 #
0.2308966242687557901547279470833 37079:1 65960:1 81544:1 95820:1 104012:1 109900:1 124253:1 140543:1 #
-0.23110378527308364504655457949411 29439:1 59693:1 81544:1 95820:1 109900:1 124253:1 139516:1 140543:1 #
-0.13401325422743823323479261944158 60736:1 81544:1 95820:1 109900:1 122466:1 124253:1 130940:1 140543:1 #
-1 79804:1 95820:1 104878:1 105571:1 109900:1 125752:1 139526:1 140543:1 #
-0.27195699276000162569744134088978 2598:1 16357:1 36548:1 95820:1 109900:1 118298:1 139519:1 140543:1 #
0.011368989203619273703482761561645 36945:1 55264:1 69686:1 71909:1 95820:1 109900:1 139515:1 140542:1 #
0.61080945947199161150109603113378 6170:1 51893:1 78187:1 88665:1 140542:1 #
0.1438595663950756886606541229412 39969:1 54996:1 88665:1 95820:1 97455:1 101503:1 122466:1 140542:1 #
0.65500081390310105344809699090547 15976:1 95820:1 104878:1 109900:1 125752:1 127343:1 139519:1 140543:1 #
0.037862006062507079506840312888016 26249:1 85337:1 95820:1 104878:1 109900:1 125752:1 139526:1 140543:1 #
0.26503053074748522677239748190914 50081:1 91271:1 95820:1 109900:1 113499:1 115637:1 122466:1 140543:1 #
0.26502919228405019680394616443664 31315:1 52621:1 56438:1 65845:1 95820:1 109900:1 122466:1 140543:1 #
0.2650299550430533779277197936608 30517:1 65917:1 78065:1 95820:1 109900:1 122466:1 138030:1 140543:1 #
-0.29974446881795707708917575473606 6897:1 53525:1 92585:1 95820:1 109900:1 122466:1 140546:1 142885:1 #
-0.20708444693021146876255045299331 84609:1 84698:1 95820:1 109900:1 122466:1 133134:1 140545:1 141638:1 #
-0.20663191822544457743049406417413 40994:1 84698:1 95820:1 104950:1 109900:1 122466:1 140545:1 141638:1 #
-0.25776815178588091681533001064963 15668:1 28079:1 95820:1 109901:1 122466:1 131979:1 139215:1 140545:1 #
-0.11363212462051788809169750038564 10482:1 78960:1 87657:1 95820:1 109901:1 122466:1 139215:1 140544:1 #
0.16400142984785809341374829273263 39969:1 51974:1 88665:1 95557:1 95820:1 97455:1 139521:1 140542:1 #
1 10482:1 10547:1 52310:1 78960:1 95820:1 109901:1 122466:1 140544:1 #
1 10482:1 46593:1 78960:1 95820:1 109901:1 122466:1 140544:1 142719:1 #
1 8485:1 17230:1 73631:1 91158:1 95820:1 109901:1 122466:1 140545:1 #
0.8667900553817746711615654930938 13461:1 39103:1 95820:1 108221:1 109901:1 122466:1 135552:1 140545:1 #
0.98403734278282350977917758427793 46935:1 49664:1 71634:1 75768:1 95820:1 109901:1 122466:1 140545:1 #
-0.90912601830231198896115074603586 10482:1 46593:1 78960:1 95820:1 109901:1 122466:1 140544:1 142719:1 #
-0.05211606558059357630074970302303 46935:1 75768:1 82692:1 91158:1 95820:1 109901:1 122466:1 140545:1 #
-0.10092057952306129897657172023173 6517:1 46935:1 75768:1 95820:1 109901:1 122466:1 139293:1 140545:1 #
0.26079294404431307974334686150542 48338:1 51799:1 59693:1 88665:1 95820:1 131136:1 139516:1 140542:1 #
0.06350487099219934150617916657211 13859:1 24785:1 39969:1 88665:1 95820:1 97455:1 139516:1 140542:1 #
-1 75185:1 77170:1 78203:1 88665:1 95820:1 127168:1 139521:1 140542:1 #
-0.37773464035030646090973505124566 403:1 17354:1 40114:1 43434:1 95820:1 109897:1 122458:1 140542:1 #
-0.03000580012284375513997858320181 5116:1 18263:1 43162:1 95820:1 109901:1 122466:1 140545:1 142545:1 #
-0.017221921601307310645267989457352 66927:1 79774:1 95820:1 105425:1 109901:1 121756:1 122466:1 140544:1 #
0.029703638279184096937513004377251 1341:1 18424:1 21975:1 88665:1 95820:1 111966:1 112793:1 140543:1 #
0.12805245513455176809003432936152 6897:1 33929:1 92585:1 95820:1 109900:1 122466:1 133896:1 140546:1 #
0.25578820410889430148060341707605 6897:1 80177:1 92585:1 95820:1 109900:1 122466:1 140546:1 141773:1 #
-0.042217681745347318544858694622235 44289:1 88665:1 95820:1 98874:1 106128:1 114443:1 122466:1 140542:1 #
-0.55922825059527381252877376027755 17767:1 23890:1 52310:1 95820:1 109901:1 122466:1 125862:1 140546:1 #
-0.032522520999953834219819981399269 49850:1 84396:1 88665:1 95820:1 122466:1 129146:1 139709:1 140542:1 #
0.086165706019007318183788868282136 12480:1 77170:1 78208:1 88665:1 95820:1 122458:1 127168:1 140542:1 #
0.10878241054281501121181463531684 67101:1 67666:1 77170:1 88665:1 95820:1 122458:1 127168:1 140542:1 #
0.15822450518248906692342359292525 10802:1 59339:1 81633:1 88776:1 95820:1 109897:1 122466:1 140542:1 #
-1 1552:1 42870:1 43468:1 83183:1 88148:1 95820:1 109900:1 140542:1 #
-1 9098:1 10802:1 88776:1 95820:1 109897:1 139519:1 140287:1 140542:1 #
-0.7114387232861556498164645745419 55524:1 65960:1 95820:1 104012:1 107045:1 109900:1 140542:1 141354:1 #
-0.3668333902476338392872889926366 39689:1 46904:1 81795:1 84533:1 95820:1 109900:1 139516:1 140542:1 #
1 23890:1 26678:1 95820:1 109901:1 121792:1 122466:1 125862:1 140546:1 #
0.97940750814127319756607903400436 23890:1 41862:1 84739:1 95820:1 109901:1 122466:1 125862:1 140546:1 #
0.87338979239835301537908662794507 14357:1 20022:1 52495:1 95820:1 98577:1 109901:1 122466:1 140544:1 #
-0.52491960504739398896134616734344 24133:1 52495:1 78581:1 95820:1 98577:1 109901:1 122466:1 140544:1 #
-0.042170648789166931269534188686521 44289:1 44664:1 88665:1 90663:1 95820:1 114443:1 122466:1 140542:1 #
-0.018280954002219709092491584101481 15668:1 19708:1 33743:1 95820:1 109901:1 122466:1 131979:1 140545:1 #
0.6064902013285673465503577972413 13569:1 81795:1 84533:1 89779:1 95820:1 109900:1 139521:1 140542:1 #
0.60646696082331175148283364251256 81795:1 84533:1 91751:1 95820:1 109900:1 128371:1 139521:1 140542:1 #
0.6064562481372153257552781724371 73717:1 81795:1 84533:1 95820:1 104780:1 109900:1 139521:1 140542:1 #
0.80475900927766619297187844495056 1552:1 22325:1 23887:1 43468:1 95820:1 109900:1 123133:1 140542:1 #
0.43177813270266218736992414051201 1552:1 25797:1 43468:1 95820:1 109900:1 109992:1 122960:1 140542:1 #
-0.39309842744205270026469634103705 59362:1 81795:1 84533:1 95820:1 109900:1 139521:1 140050:1 140542:1 #
-0.46127207331452818594996756473847 81795:1 84533:1 95820:1 109900:1 125556:1 139521:1 140519:1 140542:1 #
-0.39305890453951120022679788235109 4692:1 59363:1 81795:1 84533:1 95820:1 109900:1 139521:1 140542:1 #
-0.39301306706680866343006641727698 20630:1 81795:1 84533:1 95820:1 109900:1 115876:1 139521:1 140542:1 #
1 45760:1 73749:1 83955:1 95820:1 109901:1 110916:1 122466:1 140544:1 #
0.98277807839870023887129946160712 3065:1 79774:1 95820:1 105425:1 109901:1 122466:1 124543:1 140544:1 #
-0.0063145233917683745231141934084462 14357:1 18689:1 73749:1 95820:1 109901:1 110916:1 122466:1 140544:1 #
-0.098815602919011757965250808410929 14357:1 17230:1 48532:1 73631:1 95820:1 109901:1 122466:1 140545:1 #
-0.048864643933315451973520282535901 46593:1 79774:1 95820:1 105425:1 109901:1 122466:1 130136:1 140544:1 #
-0.011922987524653537103058731361216 14472:1 24481:1 31127:1 51076:1 95820:1 109900:1 122466:1 140542:1 #
-0.39305890453951136676025157612457 5664:1 43855:1 81795:1 84533:1 95820:1 109900:1 139521:1 140542:1 #
-0.39306916327442742442599410424009 7518:1 56609:1 81795:1 84533:1 95820:1 109900:1 139521:1 140542:1 #
-0.59183828828965023838293291191803 71515:1 81795:1 84533:1 95820:1 109900:1 135472:1 139515:1 140542:1 #
-0.26399276411969091471476644983341 26338:1 42470:1 81795:1 84533:1 95820:1 109900:1 139515:1 140542:1 #
1 15668:1 95820:1 109901:1 130080:1 131570:1 131979:1 139519:1 140545:1 #
0.59966729315338584971328828032711 15668:1 65087:1 83293:1 95820:1 109901:1 131979:1 139519:1 140545:1 #
0.74633874964982360733500854621525 8224:1 95820:1 109480:1 109901:1 112605:1 115947:1 122466:1 140544:1 #
1 6089:1 77530:1 79214:1 95820:1 109901:1 122466:1 124168:1 140545:1 #
-0.18930776049486261469745329577563 31013:1 52603:1 77530:1 79214:1 95820:1 109901:1 122466:1 140545:1 #
-0.13325785879012602697102352067304 49049:1 61669:1 95820:1 108221:1 109901:1 122466:1 135552:1 140545:1 #
-0.18522088482408174958671054355364 53045:1 68104:1 95820:1 108221:1 109901:1 122466:1 135552:1 140545:1 #
-0.13326687523393240808466941871302 57190:1 95820:1 99950:1 108221:1 109901:1 122466:1 135552:1 140545:1 #
0.41061855791359530565287627723592 23802:1 81795:1 84533:1 89661:1 95820:1 109900:1 139515:1 140542:1 #
0.41061095535246633358994472473569 17548:1 33787:1 81795:1 84533:1 95820:1 109900:1 139515:1 140542:1 #
0.77275406567382509681607416496263 81795:1 84533:1 95820:1 106462:1 109900:1 121816:1 139515:1 140542:1 #
0.32821863658212052650142709353531 1505:1 81795:1 84533:1 91020:1 95820:1 109900:1 139515:1 140542:1 #
0.39185796520178245438970066061302 46566:1 73478:1 81795:1 84533:1 95820:1 109900:1 139515:1 140542:1 #
-0.71859020524033012655706897930941 12191:1 40932:1 81795:1 84533:1 95820:1 109900:1 139515:1 140542:1 #
-0.59724825028328920595299678097945 78386:1 81795:1 84533:1 95820:1 103519:1 109900:1 139515:1 140542:1 #
-0.59882850653688746156433353462489 51756:1 65114:1 81795:1 84533:1 95820:1 109900:1 139515:1 140542:1 #
-1 26765:1 75784:1 81795:1 84533:1 95820:1 109900:1 139515:1 140542:1 #
0.86673312476606834131587220326765 57390:1 95820:1 108221:1 109901:1 122466:1 126882:1 135552:1 140545:1 #
0.86674214120987547183005972328829 38694:1 95820:1 95847:1 108221:1 109901:1 122466:1 135552:1 140545:1 #
0.86672276200711362292850026278757 18510:1 95820:1 103209:1 108221:1 109901:1 122466:1 135552:1 140545:1 #
0.86674214120987558285236218580394 34554:1 79340:1 95820:1 108221:1 109901:1 122466:1 135552:1 140545:1 #
-0.13328308320140180853741185273975 53412:1 95820:1 97297:1 108221:1 109901:1 122466:1 135552:1 140545:1 #
-0.13328308320140203058201677777106 95820:1 108221:1 109901:1 116450:1 122466:1 126918:1 135552:1 140545:1 #
1 26765:1 75784:1 81795:1 84533:1 95820:1 109900:1 139515:1 140542:1 #
0.41060617925548381634826000663452 41101:1 78572:1 81795:1 84533:1 95820:1 109900:1 139515:1 140542:1 #
0.410610955352466555634549649767 81795:1 84533:1 93586:1 95820:1 109900:1 137999:1 139515:1 140542:1 #
0.4107617778227324878415060993575 78477:1 81795:1 82647:1 84533:1 95820:1 109900:1 139515:1 140542:1 #
0.082427214603651488555868809271487 20472:1 81795:1 84533:1 95820:1 96418:1 109900:1 139515:1 140542:1 #
0.93903907709072720333409733939334 4079:1 77530:1 79214:1 95820:1 109901:1 112730:1 122466:1 140545:1 #
1 5523:1 41920:1 91619:1 95820:1 109901:1 122466:1 137355:1 140547:1 #
0.95570709357171179654244497214677 41920:1 45147:1 64648:1 95820:1 109901:1 122466:1 137355:1 140547:1 #
-0.43813283592527624277224163051869 1552:1 41920:1 95820:1 109901:1 114096:1 137355:1 140547:1 142655:1 #
-0.11881261014969989042722176009192 41920:1 80404:1 95820:1 109901:1 135526:1 137355:1 139519:1 140547:1 #
-0.1097141283353777890807734252121 30956:1 41920:1 93637:1 95820:1 109901:1 137355:1 139519:1 140547:1 #
-0.089246957568273457828134098690498 41920:1 80177:1 95820:1 109901:1 122466:1 133096:1 137355:1 140547:1 #
0.41061855791359519463057381472026 40974:1 81795:1 84533:1 90402:1 95820:1 109900:1 139515:1 140542:1 #
0.12365759486408800515988559709513 1391:1 81795:1 84533:1 95820:1 97274:1 109900:1 139515:1 140542:1 #
0.85582362881724882708311952228541 28606:1 73528:1 81795:1 84533:1 95820:1 109900:1 139526:1 140542:1 #
-0.02995975368587827647459675972641 5116:1 40225:1 43162:1 95820:1 109901:1 122466:1 131607:1 140545:1 #
-0.22110711677433539379400428970257 10543:1 17847:1 81795:1 84533:1 95820:1 109900:1 139516:1 140542:1 #
-0.16794966476458084159162353898864 58877:1 81795:1 84533:1 95820:1 109900:1 115023:1 139516:1 140542:1 #
0.84916583016628377489354306817404 41920:1 95820:1 102172:1 109901:1 135650:1 137355:1 139521:1 140547:1 #
0.60492646384341908216697447642218 4939:1 41556:1 41920:1 95820:1 109901:1 122455:1 137355:1 140547:1 #
0.81857658255951348813539425464114 41920:1 85621:1 95820:1 109901:1 122455:1 132736:1 137355:1 140547:1 #
0.79494051483225369736373977502808 1341:1 41920:1 84652:1 86959:1 95820:1 109901:1 137355:1 140547:1 #
0.38901761480755164823719383093703 1341:1 5501:1 41920:1 58919:1 95820:1 109901:1 137355:1 140547:1 #
-0.15681835349193079531815442351217 12431:1 41920:1 76202:1 95820:1 109901:1 122458:1 137355:1 140547:1 #
-0.13508184155676433713111350698455 41920:1 62684:1 76264:1 95820:1 109901:1 122458:1 137355:1 140547:1 #
-0.15681997780014131360637463785679 40997:1 41920:1 93888:1 95820:1 109901:1 122458:1 137355:1 140547:1 #
-0.15083416983371361608234906270809 41920:1 76742:1 95820:1 109901:1 125057:1 137355:1 139521:1 140547:1 #
0.6326950203006121986604171070212 12147:1 25891:1 81795:1 84533:1 95820:1 109900:1 139516:1 140542:1 #
0.27863471324263378026131476872251 7128:1 81795:1 82763:1 84533:1 95820:1 109900:1 139516:1 140542:1 #
0.63269502030061275377192941959947 727:1 81795:1 84533:1 95820:1 109900:1 112128:1 139516:1 140542:1 #
0.63269502030061275377192941959947 29815:1 81795:1 84533:1 95627:1 95820:1 109900:1 139516:1 140542:1 #
-0.44728732000985899075473639641132 1341:1 79357:1 81795:1 84533:1 95820:1 109900:1 112275:1 140542:1 #
-0.4472873200098591572881900901848 1341:1 64893:1 81795:1 84533:1 95820:1 102438:1 109900:1 140542:1 #
-0.49740864376485882658585069293622 1341:1 45546:1 81795:1 84533:1 95820:1 109900:1 135944:1 140542:1 #
-0.44728732000985660377523345232476 1341:1 81795:1 84533:1 95820:1 109678:1 109900:1 124921:1 140542:1 #
0.55755864552783618304232504669926 17953:1 41920:1 41996:1 95820:1 109901:1 137355:1 139521:1 140547:1 #
0.18494424199534473252093391693052 13463:1 41920:1 65960:1 95820:1 104012:1 109901:1 137355:1 140547:1 #
-0.044339959476830254070378600772528 13442:1 41920:1 90921:1 95820:1 109901:1 122466:1 137355:1 140547:1 #
-0.86046098347050481436326663242653 22325:1 23887:1 95820:1 109900:1 111782:1 124856:1 139515:1 140542:1 #
-0.10063416175361690474421294538843 7073:1 15668:1 49000:1 95820:1 109901:1 131979:1 139515:1 140545:1 #
-0.16495272482413847470184009580407 15668:1 30163:1 88409:1 95820:1 109901:1 131979:1 139515:1 140545:1 #
-1 48067:1 87215:1 95610:1 95820:1 109900:1 120239:1 139526:1 140545:1 #
-0.034689120421997850229889337470013 81544:1 95820:1 106890:1 109900:1 122466:1 124253:1 133692:1 140543:1 #
-0.10933247720619072851366837539899 41920:1 66703:1 95820:1 109901:1 113452:1 137355:1 139516:1 140547:1 #
-0.12474218463912385701508611646204 41920:1 59129:1 75115:1 95820:1 109901:1 137355:1 139516:1 140547:1 #
0.01064881491713115177488724327759 49483:1 55893:1 75666:1 90066:1 95820:1 122466:1 #
-0.044339255962240649300287742562432 41920:1 51775:1 95820:1 98103:1 109901:1 122466:1 137355:1 140547:1 #
0.63853999624618795749597666144837 15770:1 81795:1 84533:1 95820:1 109900:1 126679:1 139519:1 140542:1 #
1 78654:1 81795:1 84533:1 95820:1 109900:1 136280:1 139519:1 140542:1 #
1 34064:1 81795:1 84533:1 95820:1 108188:1 109900:1 139519:1 140542:1 #
1 56837:1 81795:1 84533:1 88684:1 95820:1 109900:1 139519:1 140542:1 #
-0.76514538056198688753539727258612 56837:1 81795:1 84533:1 88684:1 95820:1 109900:1 139519:1 140542:1 #
0.87465032674970100146083495928906 15668:1 21016:1 48982:1 95820:1 109901:1 131979:1 139521:1 140545:1 #
0.80132344939012745133055659607635 84200:1 88396:1 95820:1 106260:1 109901:1 122458:1 140545:1 142476:1 #
-0.17156817122630171890129702205741 6851:1 95820:1 101890:1 108221:1 109901:1 122455:1 135552:1 140545:1 #
-0.086180292965390217774235281922302 37904:1 46626:1 84200:1 95820:1 109901:1 122466:1 140545:1 142476:1 #
-0.086180292965390203896447474107845 55179:1 82683:1 84200:1 95820:1 109901:1 122466:1 140545:1 142476:1 #
-0.086207772723638040335281118586863 8668:1 84200:1 95820:1 109901:1 113193:1 122466:1 140545:1 142476:1 #
-0.086180292965390203896447474107845 18874:1 84200:1 95820:1 109901:1 122466:1 129945:1 140545:1 142476:1 #
-0.6747441519224153250178233065526 56837:1 81795:1 84533:1 88684:1 95820:1 109900:1 139519:1 140542:1 #
0.021669871117809692828704015710173 26269:1 40343:1 88651:1 88869:1 140543:1 #
-0.14220475636148663389768387332879 77530:1 79214:1 91158:1 95820:1 99517:1 109901:1 122466:1 140545:1 #
-0.005546353388686829644083076118477 77002:1 83393:1 95820:1 108221:1 109901:1 122466:1 135552:1 140545:1 #
0.18321778097685409436579107023135 32095:1 40255:1 95820:1 109900:1 132276:1 138797:1 139519:1 140542:1 #
-0.86025006648091528749233702910715 59774:1 81795:1 84533:1 95820:1 109900:1 139519:1 140542:1 140581:1 #
-0.36012358549317752265395142785565 1375:1 81795:1 84533:1 95820:1 98012:1 109900:1 139519:1 140542:1 #
-0.36102286487248136381822405382991 7217:1 17982:1 81795:1 84533:1 95820:1 109900:1 139519:1 140542:1 #
-0.36082916344999299562701366994588 30755:1 48723:1 81795:1 84533:1 95820:1 109900:1 139519:1 140542:1 #
0.85688632944238440902751108296798 16934:1 47372:1 72057:1 95820:1 98234:1 109901:1 122466:1 140536:1 #
0.85688632944238163346994952007663 16934:1 47372:1 84857:1 95820:1 109901:1 121257:1 122466:1 140536:1 #
-0.29733767630066182396930685172265 1341:1 10598:1 16934:1 47372:1 65039:1 95820:1 109901:1 140536:1 #
-0.25504987602630907472800458890561 16934:1 47372:1 50659:1 95820:1 109901:1 113594:1 122458:1 140536:1 #
-0.14311367055761695099569408284879 16934:1 47372:1 77160:1 93683:1 95820:1 109901:1 122466:1 140536:1 #
-0.14309286256418191074502033188764 6678:1 16934:1 47372:1 69024:1 95820:1 109901:1 122466:1 140536:1 #
-0.14309286256418224381192771943461 16934:1 47372:1 59511:1 95820:1 103317:1 109901:1 122466:1 140536:1 #
0.63853999624619006691972344924579 11250:1 50574:1 81795:1 84533:1 95820:1 109900:1 139519:1 140542:1 #
0.63890307610184982056722446941421 71665:1 81795:1 84533:1 95820:1 109900:1 111832:1 139519:1 140542:1 #
0.6385330959993931188023452705238 16898:1 20909:1 81795:1 84533:1 95820:1 109900:1 139519:1 140542:1 #
0.34569605467548109034581216292281 1552:1 16934:1 47372:1 88417:1 95820:1 109901:1 137065:1 140536:1 #
0.93098195290043594951612249133177 16934:1 47372:1 78203:1 95820:1 100894:1 109901:1 139521:1 140536:1 #
-0.029969096229734638187069961645648 5116:1 13668:1 15404:1 43162:1 95820:1 109901:1 122466:1 140545:1 #
-0.18912702305135298264104903864791 10482:1 78960:1 84753:1 91619:1 95820:1 109901:1 122466:1 140544:1 #
-0.035908218216100303010751559895652 17230:1 55711:1 65382:1 73631:1 95820:1 109901:1 139521:1 140545:1 #
-0.11808536173316737383220953461205 17230:1 49366:1 66413:1 73631:1 95820:1 109901:1 139521:1 140545:1 #
-0.30022269757480402052607360019465 17230:1 24193:1 73631:1 93354:1 95820:1 109901:1 139521:1 140545:1 #
-0.06144088198065231903877148056381 17230:1 44470:1 53349:1 73631:1 95820:1 109901:1 122455:1 140545:1 #
0.63268092676893028514228944914066 33006:1 81795:1 84144:1 84533:1 95820:1 109900:1 139516:1 140542:1 #
0.63293788742353163101483914942946 81795:1 84533:1 88540:1 95820:1 100725:1 109900:1 139516:1 140542:1 #
0.63306250730880286869961537377094 40633:1 81795:1 84533:1 91495:1 95820:1 109900:1 139516:1 140542:1 #
0.60050615423143804960659508651588 23989:1 59484:1 81795:1 84533:1 95820:1 109900:1 122458:1 140542:1 #
1 17917:1 88869:1 109901:1 126476:1 140545:1 #
0.59107642343744504209723800158827 5280:1 48210:1 55507:1 95820:1 109901:1 122455:1 126476:1 140545:1 #
-0.80937440674913396776446461444721 1552:1 3608:1 55507:1 95820:1 109901:1 110846:1 126476:1 140545:1 #
-0.060968069812947008057069098185821 77530:1 79214:1 95820:1 109901:1 122466:1 123723:1 125980:1 140545:1 #
-0.060987830381970732640528609636021 37564:1 66640:1 77530:1 79214:1 95820:1 109901:1 122466:1 140545:1 #
-0.06098207498470004095381113984331 68510:1 74049:1 77530:1 79214:1 95820:1 109901:1 122466:1 140545:1 #
-0.060960922909270250091839926653847 8958:1 77530:1 79214:1 94243:1 95820:1 109901:1 122466:1 140545:1 #
-0.15940009714305061749861636144487 51215:1 78311:1 81795:1 84533:1 95820:1 109900:1 122455:1 140542:1 #
-0.42365860265907406834173798415577 11688:1 23297:1 81795:1 84533:1 95820:1 109900:1 122455:1 140542:1 #
-0.23455121748038906814848303383769 33140:1 70095:1 81795:1 84533:1 95820:1 109900:1 122455:1 140542:1 #
0.65369625598044556191723586380249 29747:1 55507:1 95820:1 109901:1 112061:1 126476:1 139519:1 140545:1 #
0.42058335080283454354699301802611 1552:1 9226:1 83848:1 95820:1 99961:1 106870:1 109901:1 140545:1 #
-0.074272463262072596634766341594514 706:1 9226:1 95820:1 99961:1 109901:1 110980:1 139519:1 140545:1 #
-0.075290652655536541293379571015976 4455:1 9226:1 95820:1 99961:1 109901:1 114422:1 139519:1 140545:1 #
-0.030004728819479058871122489904337 5116:1 35688:1 43162:1 95820:1 109901:1 118572:1 122466:1 140545:1 #
-1 34064:1 63952:1 82675:1 88665:1 95820:1 101417:1 139519:1 140543:1 #
0.57591012485774950580008635370177 70064:1 81795:1 84533:1 95820:1 109900:1 122455:1 139558:1 140542:1 #
0.57585068376771897380450582204503 81795:1 84533:1 95820:1 105049:1 109900:1 122455:1 139935:1 140542:1 #
0.5763553973468492630516379904293 15163:1 81795:1 84533:1 95820:1 104228:1 109900:1 122455:1 140542:1 #
0.53252023664508874034595464763697 17815:1 51215:1 58181:1 91765:1 95820:1 109900:1 122455:1 140542:1 #
0.44154653577089880700512480871112 81795:1 84533:1 95610:1 95820:1 102784:1 109900:1 139526:1 140542:1 #
-0.39909381994528259074428433450521 69926:1 81795:1 84533:1 95820:1 109900:1 109982:1 122458:1 140542:1 #
-0.3990559926005649571401079356292 11748:1 18517:1 81795:1 84533:1 95820:1 109900:1 122458:1 140542:1 #
-0.39904196898433691442775739233184 1578:1 81795:1 84533:1 95820:1 109900:1 119491:1 122458:1 140542:1 #
-0.39897895928833915224487327577663 65458:1 81795:1 84533:1 95820:1 109900:1 122458:1 131098:1 140542:1 #
0.15684525696758930268792653350829 56837:1 71303:1 75666:1 90066:1 95820:1 139519:1 #
0.11185688083842598716799443536729 1341:1 4558:1 22511:1 75931:1 88651:1 95820:1 105424:1 140543:1 #
0.22335284944702935017168954345834 9226:1 16675:1 65960:1 95820:1 99961:1 104012:1 109901:1 140545:1 #
-1 1552:1 42353:1 75666:1 88417:1 90066:1 95820:1 #
-1 9813:1 53764:1 67432:1 75666:1 90066:1 95820:1 #
-1 410:1 20957:1 75666:1 90066:1 95820:1 139526:1 #
-0.90085265494719279910640352682094 48931:1 63575:1 75666:1 90066:1 95820:1 139515:1 #
0.60052028985186323151168608092121 75396:1 81795:1 84533:1 90596:1 95820:1 109900:1 122458:1 140542:1 #
0.6005061542314384936958049365785 34219:1 68316:1 81795:1 84533:1 95820:1 109900:1 122458:1 140542:1 #
0.60050615423143882676271232412546 46375:1 75051:1 81795:1 84533:1 95820:1 109900:1 122458:1 140542:1 #
0.60050615423144149129797142450116 81795:1 84533:1 95820:1 109900:1 122458:1 126528:1 132716:1 140542:1 #
-0.39906147605728359284427142483764 75654:1 81795:1 84533:1 84668:1 95820:1 109900:1 122458:1 140542:1 #
-0.42662104714400833627152564986318 45788:1 81795:1 84533:1 92878:1 95820:1 109900:1 122458:1 140542:1 #
-0.60921856600888024679818499862449 26115:1 70862:1 81795:1 84533:1 95820:1 109900:1 122458:1 140542:1 #
-0.43242563997871308334453033239697 39223:1 81795:1 84533:1 95820:1 109900:1 122458:1 129451:1 140542:1 #
0.28860838196887977913362988147128 45490:1 75666:1 85635:1 90066:1 95820:1 139515:1 #
0.086265915104723214779092188564391 1552:1 51383:1 75666:1 90066:1 95820:1 108731:1 #
-1 49200:1 75666:1 82882:1 90066:1 95820:1 139515:1 #
-1 7795:1 75666:1 89384:1 90066:1 95820:1 122455:1 #
0.64328151376753306411870880765491 9813:1 53764:1 75611:1 81795:1 84533:1 95820:1 109900:1 140542:1 #
-0.44370349239319395451275340747088 29966:1 47771:1 81795:1 84533:1 95820:1 109900:1 139516:1 140542:1 #
-0.36688915002239708140763241317472 81795:1 84533:1 95701:1 95820:1 109900:1 139516:1 140542:1 140894:1 #
-0.36679778499804466251887902217277 67667:1 81795:1 84533:1 95820:1 109900:1 139516:1 140164:1 140542:1 #
0.0018774769799507198472787727894229 10655:1 70294:1 88651:1 95820:1 117388:1 121880:1 122466:1 140542:1 #
-0.00038946654758043893320221262577263 14472:1 51076:1 84439:1 95820:1 99339:1 109900:1 122466:1 140542:1 #
0.011328945793856059001680769426912 19913:1 46918:1 75666:1 90066:1 95820:1 122466:1 #
-1 25770:1 48396:1 75666:1 90066:1 95820:1 139519:1 #
-1 2110:1 75666:1 85095:1 90066:1 95820:1 139519:1 #
-0.36687192303933879866661982305232 1986:1 81795:1 84533:1 95820:1 109900:1 113138:1 139516:1 140542:1 #
-0.36691051354804260498099210963119 1186:1 81795:1 84533:1 95820:1 109900:1 139516:1 140542:1 142095:1 #
-0.36691051354803994044573300925549 81795:1 84533:1 95820:1 96767:1 109900:1 137327:1 139516:1 140542:1 #
-0.39892197889369146457383408232999 70998:1 81795:1 84533:1 95820:1 104324:1 109900:1 139516:1 140542:1 #
0.9368485171946920875285513830022 25770:1 48396:1 75666:1 90066:1 95820:1 139519:1 #
-0.011601172526132333753801084696988 17230:1 44394:1 73631:1 95820:1 109901:1 122466:1 136004:1 140545:1 #
-1 40182:1 75666:1 90066:1 95820:1 139235:1 139519:1 #
-0.30817858985781471092835204217408 16491:1 81795:1 84533:1 85635:1 95820:1 109900:1 139515:1 140542:1 #
-0.36681306938363000824665505206212 14836:1 35910:1 81795:1 84533:1 95820:1 109900:1 139516:1 140542:1 #
-0.36700451482606860631463518984674 60506:1 81795:1 84533:1 95820:1 109900:1 121019:1 139516:1 140542:1 #
-0.34000869028786556702570464949531 81795:1 84533:1 95366:1 95820:1 109900:1 125447:1 139516:1 140542:1 #
-0.13317920891818998962996545287751 95820:1 97711:1 102319:1 108221:1 109901:1 122466:1 135552:1 140545:1 #
0.011301862841527747852166108089023 72155:1 72477:1 75666:1 90066:1 95820:1 122466:1 #
0.83065417558993182023385770662571 11575:1 81795:1 84533:1 95820:1 108279:1 109900:1 122466:1 140542:1 #
0.71284385287763596394938758749049 71588:1 81795:1 84533:1 95820:1 109900:1 122466:1 138186:1 140542:1 #
0.71284385287763563088248019994353 67869:1 79232:1 81795:1 84533:1 95820:1 109900:1 122466:1 140542:1 #
-0.28661590765680805548143439409614 81795:1 84533:1 95820:1 101089:1 109900:1 110296:1 122466:1 140542:1 #
-0.28658059753382697509849208472588 81795:1 84533:1 84603:1 93505:1 95820:1 109900:1 122466:1 140542:1 #
-0.28656903678168343940768636457506 65015:1 81795:1 84533:1 95820:1 109900:1 122466:1 132172:1 140542:1 #
-0.28661590765680761139222454403352 24611:1 34994:1 81795:1 84533:1 95820:1 109900:1 122466:1 140542:1 #
-0.2166117736212804512074825424861 53122:1 81795:1 84533:1 95820:1 109900:1 113338:1 122466:1 140542:1 #
0.1527688383242521985572182074975 29966:1 60553:1 75666:1 90066:1 95820:1 139516:1 #
0.51857328442072048169109166337876 17096:1 61242:1 81795:1 84533:1 95820:1 109900:1 122466:1 140542:1 #
0.71287600743112278234292489287327 52607:1 81795:1 84533:1 95820:1 109900:1 110829:1 122466:1 140542:1 #
0.71287600743112400358825198054546 59111:1 81795:1 84533:1 95820:1 109900:1 122466:1 140542:1 141898:1 #
0.95827087030248481180905173459905 842:1 21774:1 81795:1 84533:1 95820:1 109900:1 122466:1 140542:1 #
1 34864:1 81795:1 84533:1 95820:1 109900:1 122466:1 135594:1 140542:1 #
-0.28659641953661707525213842018275 36495:1 37538:1 81795:1 84533:1 95820:1 109900:1 122466:1 140542:1 #
-0.28658941077494415328175136892241 81795:1 84533:1 95820:1 109900:1 119862:1 122466:1 123556:1 140542:1 #
-0.28649320244708537108735413312388 42360:1 81795:1 84533:1 95820:1 102859:1 109900:1 122466:1 140542:1 #
-0.53589172045610222738787342677824 81795:1 84533:1 87944:1 95820:1 109900:1 122466:1 138003:1 140542:1 #
-0.28656903678168432758610606470029 49276:1 81795:1 84533:1 95820:1 109900:1 122466:1 127836:1 140542:1 #
0.0049285150085731851965498151457723 27246:1 71515:1 75666:1 90066:1 95820:1 139515:1 #
0.030335145359637813444741993862408 64856:1 75666:1 85447:1 90066:1 95820:1 122466:1 #
0.71288583549230355451697960234014 2472:1 54581:1 81795:1 84533:1 95820:1 109900:1 122466:1 140542:1 #
0.7131216816590485452209691175085 35691:1 55580:1 81795:1 84533:1 95820:1 109900:1 122466:1 140542:1 #
0.71330627440223792756768261824618 81795:1 84533:1 88120:1 95820:1 109900:1 121202:1 122466:1 140542:1 #
1 20753:1 21134:1 81795:1 84533:1 95820:1 109900:1 122466:1 140542:1 #
-0.28658059753382941758914626007027 38504:1 81795:1 84533:1 94264:1 95820:1 109900:1 122466:1 140542:1 #
-0.2865964195366171862744408826984 27954:1 37091:1 81795:1 84533:1 95820:1 109900:1 122466:1 140542:1 #
-0.28658059753382897349993641000765 68244:1 81795:1 84533:1 91396:1 95820:1 109900:1 122466:1 140542:1 #
-0.33837961887026768437181090121157 51758:1 81795:1 84533:1 95820:1 109900:1 122101:1 122466:1 140542:1 #
0.010628788810860276617398234577649 53512:1 75666:1 90066:1 95820:1 118585:1 122466:1 #
0.057613458519109914113265347168635 1552:1 81795:1 84533:1 88417:1 94123:1 95820:1 109900:1 140542:1 #
-0.39856697425469256312879906545277 54472:1 90516:1 95820:1 109901:1 131570:1 132106:1 139519:1 140546:1 #
-0.45392199368197233555477509980847 56703:1 78654:1 79774:1 95820:1 105425:1 109901:1 139519:1 140544:1 #
-0.36114277819848028538984863189398 3831:1 81795:1 84533:1 95820:1 109900:1 122425:1 139519:1 140542:1 #
-0.1866847027150555504704243503511 232:1 20810:1 88665:1 95820:1 101019:1 101051:1 139515:1 140542:1 #
0.8768404354053785931810693909938 88148:1 96930:1 109900:1 126456:1 140542:1 #
-0.64678142026696427979715053879772 50425:1 83183:1 88148:1 95820:1 109900:1 111759:1 122466:1 140542:1 #
-0.94794306569229758174799371772679 83183:1 88148:1 95820:1 108426:1 109900:1 122466:1 140542:1 142578:1 #
-0.66376054945625972969480699248379 2376:1 5611:1 83183:1 88148:1 95820:1 109900:1 122466:1 140542:1 #
-0.76771352896446931612928210597602 55134:1 83183:1 88148:1 95820:1 101163:1 109900:1 122466:1 140542:1 #
-0.011599221495573878645823917565849 17230:1 51095:1 73631:1 95820:1 109901:1 122466:1 133173:1 140545:1 #
-0.017221921601308295968202344283782 31987:1 79774:1 95820:1 99544:1 105425:1 109901:1 122466:1 140544:1 #
0.011323198613914132668045731122675 56149:1 75666:1 90066:1 95820:1 122466:1 130037:1 #
0.011325188521941637401213576197279 75666:1 90066:1 95820:1 122466:1 124342:1 139337:1 #
0.011324229011239628911456023274695 75666:1 82781:1 90066:1 95820:1 122466:1 124394:1 #
-1 29854:1 54821:1 75666:1 90066:1 95820:1 139521:1 #
0.075758974487316027568439835704339 53764:1 69330:1 81795:1 84533:1 95820:1 109900:1 129468:1 140542:1 #
-0.44728732000985749195365315244999 1341:1 52187:1 81795:1 84533:1 86943:1 95820:1 109900:1 140542:1 #
-0.49748014990608613317135677789338 1341:1 68761:1 81795:1 84533:1 85725:1 95820:1 109900:1 140542:1 #
-0.66376054945626206116315870531253 11548:1 52923:1 83183:1 88148:1 95820:1 109900:1 122466:1 140542:1 #
1 19711:1 85635:1 88662:1 90117:1 95820:1 121039:1 139515:1 140543:1 #
0.13552454928619375729148543996416 53345:1 75666:1 90066:1 95820:1 125556:1 139521:1 #
0.31867072019962061624198668141617 1552:1 32626:1 81795:1 84533:1 95820:1 109900:1 132153:1 140542:1 #
-0.011092353488762914798249070713609 20897:1 54472:1 95820:1 109901:1 122466:1 132106:1 140546:1 141989:1 #
0.31867072019961983908586944380659 1552:1 81795:1 84533:1 95820:1 109900:1 118843:1 131103:1 140542:1 #
-0.36680917159807363558954307336535 67729:1 81795:1 84533:1 94948:1 95820:1 109900:1 139516:1 140542:1 #
-0.36690655127712124006222893513041 49171:1 81795:1 84533:1 91697:1 95820:1 109900:1 139516:1 140542:1 #
-0.36690655127712001881690184745821 62761:1 81795:1 84533:1 95820:1 109900:1 139516:1 140542:1 142888:1 #
0.20646657054576389445088580032461 9253:1 75666:1 90066:1 95820:1 122466:1 136732:1 #
0.27800527749398107335565555331414 411:1 60463:1 81795:1 84533:1 95820:1 109900:1 139526:1 140542:1 #
0.089217027276039029271004210386309 398:1 60458:1 81795:1 84533:1 95820:1 109900:1 139526:1 140542:1 #
0.28670503861850366034147441496316 14059:1 81795:1 84533:1 95820:1 109900:1 135986:1 139526:1 140542:1 #
-0.22936275125196875501742965752783 33140:1 70095:1 81795:1 84533:1 95820:1 109900:1 122455:1 140542:1 #
-0.43996308978019732505160277469258 81795:1 84533:1 89865:1 93621:1 95820:1 109900:1 139519:1 140542:1 #
0.11111079349755319245485196688605 1341:1 38338:1 95820:1 109900:1 109992:1 122960:1 137012:1 140542:1 #
0.013935137177204815275843863275895 20776:1 21625:1 95820:1 109900:1 112966:1 122458:1 128155:1 129451:1 #
-0.13277108394759062903744961658958 95820:1 108221:1 109901:1 114111:1 122466:1 132520:1 135552:1 140545:1 #
0.010634597108233183673786648171244 31754:1 33204:1 75666:1 90066:1 95820:1 122466:1 #
0.04726678040499096566939840613486 28382:1 80695:1 95820:1 109900:1 112085:1 116904:1 122466:1 140542:1 #
0.034195458192190233970286783460324 27709:1 75666:1 90066:1 95820:1 122466:1 132061:1 #
-0.62703810639873469590099830384133 48931:1 63575:1 75666:1 90066:1 95820:1 139515:1 #
1 3252:1 18949:1 92228:1 95820:1 109901:1 110507:1 139519:1 140544:1 #
0.90248168119856131408340615962516 19725:1 79774:1 95820:1 105425:1 109901:1 125366:1 139516:1 140544:1 #
0.61415530880990665263396977024968 54472:1 65087:1 95820:1 103461:1 109901:1 132106:1 139519:1 140546:1 #
-0.033378032254009815105177949590143 46413:1 51974:1 88665:1 95820:1 98119:1 118790:1 139521:1 140543:1 #
0.019576789021073102287084921613314 51756:1 73575:1 95820:1 109896:1 139005:1 139299:1 139515:1 140542:1 #
-0.020183179773604408707710078374475 9226:1 53471:1 72461:1 95820:1 99961:1 109901:1 122466:1 140545:1 #
-0.020689417452546897402410053246058 6234:1 76587:1 88665:1 113063:1 140542:1 #
0.016752858764120921730711444297413 8037:1 44736:1 73163:1 78386:1 95820:1 109897:1 139515:1 140542:1 #
0.15688393402982078739249516274867 75666:1 90066:1 93621:1 95820:1 112289:1 139519:1 #
0.013506268264542155635443698713516 1775:1 70847:1 88665:1 95820:1 98638:1 124692:1 139519:1 140544:1 #
-1 29543:1 66742:1 73528:1 95820:1 96860:1 139526:1 #
-0.72319791445408077024126214382704 1341:1 7851:1 15348:1 76439:1 76587:1 88665:1 95820:1 140542:1 #
-0.1538129866546631974166814416094 46867:1 79774:1 82908:1 95820:1 105425:1 109901:1 139519:1 140544:1 #
-0.091637703553774374487517206944176 23573:1 75275:1 79774:1 95820:1 105425:1 109901:1 139519:1 140544:1 #
-0.091637703553774124687336666283954 19750:1 28808:1 79774:1 95820:1 105425:1 109901:1 139519:1 140544:1 #
0.15688362836106242714784286818031 3407:1 75666:1 90066:1 95820:1 128843:1 139519:1 #
0.016196955806485745232858874942394 410:1 10313:1 13065:1 88665:1 95820:1 115799:1 139526:1 140542:1 #
0.18354199734448159442301573562872 32730:1 76439:1 76587:1 88665:1 95820:1 100194:1 122455:1 140542:1 #
-1 2688:1 21134:1 76439:1 76587:1 88665:1 95820:1 122466:1 140542:1 #
-1 4313:1 12212:1 76439:1 76587:1 88665:1 95820:1 122466:1 140542:1 #
-0.64494356543653263980075962535921 54998:1 68172:1 76439:1 76587:1 88665:1 95820:1 122466:1 140542:1 #
-0.67938808648900750331023346006987 25525:1 31763:1 76439:1 76587:1 88665:1 95820:1 122466:1 140542:1 #
0.85730905836807103082009007266606 41135:1 56619:1 57954:1 95820:1 102395:1 109901:1 122455:1 140545:1 #
0.59397828515654937930889900599141 20589:1 45921:1 94168:1 95820:1 109901:1 122316:1 139521:1 140544:1 #
1 78187:1 105425:1 109901:1 124611:1 140544:1 #
-0.12403803814248638703876537192627 54472:1 95820:1 106637:1 109901:1 122458:1 123611:1 132106:1 140546:1 #
-0.033634654559367781201384417499867 39867:1 57954:1 95820:1 102395:1 109901:1 113531:1 139516:1 140545:1 #
-0.085953878970467675890709813302237 57954:1 95820:1 102395:1 108034:1 109901:1 139516:1 139852:1 140545:1 #
-0.048632102426961879015898659872619 49698:1 54472:1 85788:1 95820:1 109901:1 132106:1 139516:1 140546:1 #
0.3200813900155272673231365843094 12298:1 76439:1 76587:1 88665:1 95820:1 122466:1 130636:1 140542:1 #
0.32010749943149957585930565073795 71326:1 73013:1 76439:1 76587:1 88665:1 95820:1 122466:1 140542:1 #
0.32009091523863264505678216664819 58160:1 76439:1 76587:1 88665:1 95820:1 111427:1 122466:1 140542:1 #
0.32008139001552537994399472154328 62659:1 76439:1 76587:1 88665:1 88969:1 95820:1 122466:1 140542:1 #
0.32008139001552610158896072789503 25479:1 76439:1 76587:1 88665:1 95475:1 95820:1 122466:1 140542:1 #
-0.29607338189414683649047788094322 54998:1 68172:1 76439:1 76587:1 88665:1 95820:1 122466:1 140542:1 #
0.87596196185751395990592982343514 18434:1 39710:1 54472:1 95820:1 109901:1 122458:1 132106:1 140546:1 #
0.59420242070283446622624978772365 1552:1 54472:1 74226:1 95820:1 109901:1 132106:1 134663:1 140546:1 #
0.45343566836152993104747110919561 1341:1 54472:1 58919:1 95820:1 99187:1 109901:1 132106:1 140546:1 #
-0.17306474086049641880613592093141 1341:1 12383:1 54472:1 71943:1 95820:1 109901:1 132106:1 140546:1 #
-0.086088097948315844831768117728643 54472:1 95820:1 96439:1 103064:1 109901:1 132106:1 139519:1 140546:1 #
1 20474:1 53122:1 77242:1 88665:1 95820:1 105679:1 122466:1 140542:1 #
0.53054161732013627172932501707692 37469:1 80177:1 95820:1 109900:1 122466:1 127801:1 140542:1 141779:1 #
0.28720298863455806515077028961969 7831:1 36081:1 79239:1 88665:1 89952:1 95820:1 122466:1 140542:1 #
-1 20474:1 53122:1 77242:1 88665:1 95820:1 105679:1 122466:1 140542:1 #
0.063434094588650208335067759435333 32583:1 39969:1 88665:1 95820:1 97455:1 118198:1 139516:1 140542:1 #
0.80378072257360799746095381124178 23890:1 39787:1 95820:1 107503:1 109901:1 122455:1 125862:1 140546:1 #
-0.17160764367408568031869720016402 969:1 23890:1 95820:1 105957:1 109901:1 122458:1 125862:1 140546:1 #
-0.13287458707697560877925013755885 23890:1 88698:1 95820:1 109901:1 122458:1 125114:1 125862:1 140546:1 #
-0.15592341581897239954912492976291 15668:1 38309:1 95820:1 109901:1 120332:1 122455:1 131979:1 140545:1 #
-0.080947582722641089891801868816401 15668:1 58826:1 78805:1 95820:1 109901:1 122455:1 131979:1 140545:1 #
-0.089010535988171768373433678789297 15668:1 95820:1 107877:1 109901:1 122458:1 123990:1 131979:1 140545:1 #
0.23978275149081990091914917684335 17236:1 36097:1 76439:1 76587:1 88665:1 95820:1 139516:1 140542:1 #
0.23978275149082120543120311140228 43692:1 44053:1 76439:1 76587:1 88665:1 95820:1 139516:1 140542:1 #
0.22179102696309163644805551030004 6091:1 76439:1 76587:1 88665:1 95820:1 111217:1 139516:1 140542:1 #
0.86709190366972044294868737779325 34376:1 41563:1 81544:1 95820:1 109900:1 122458:1 124253:1 140543:1 #
0.3552728054020214409902678198705 47818:1 88773:1 95820:1 109901:1 115653:1 122458:1 137654:1 140544:1 #
-0.086088097948316302798765775605716 20103:1 38735:1 54472:1 95820:1 109901:1 132106:1 139519:1 140546:1 #
-0.085992430550837870018021646956186 54472:1 77335:1 95820:1 102770:1 109901:1 132106:1 139519:1 140546:1 #
0.32010749943149907625894456941751 76439:1 76587:1 79158:1 81299:1 88665:1 95820:1 122466:1 140542:1 #
0.32010749943149974239275934451143 76439:1 76587:1 88665:1 95820:1 122466:1 123509:1 135164:1 140542:1 #
0.32010828853688477746430862680427 31124:1 57223:1 76439:1 76587:1 88665:1 95820:1 122466:1 140542:1 #
0.32008139001552537994399472154328 34481:1 76439:1 76587:1 88665:1 95820:1 121942:1 122466:1 140542:1 #
0.12698875972093381925276389665669 28743:1 95820:1 108181:1 109900:1 113352:1 128118:1 139519:1 140544:1 #
0.1233708137634584589559239020673 39363:1 73278:1 95820:1 108181:1 109900:1 128118:1 139519:1 140544:1 #
0.12694027530950235949092075316003 29369:1 95820:1 108181:1 109900:1 117574:1 128118:1 139519:1 140544:1 #
0.06679576451930673008927641376431 12391:1 95820:1 105275:1 108181:1 109900:1 128118:1 139519:1 140544:1 #
0.12697253055429194579240004259191 85748:1 95820:1 108181:1 109900:1 114580:1 128118:1 139519:1 140544:1 #
0.22671636033844716484608738937823 1341:1 7851:1 10802:1 82034:1 88776:1 95820:1 109897:1 140542:1 #
-0.00074193121951408446280301633990462 14878:1 18733:1 81136:1 88665:1 93546:1 95820:1 122466:1 140543:1 #
-0.030004728819478694579192534774847 5116:1 43162:1 67524:1 95820:1 109901:1 114579:1 122466:1 140545:1 #
-0.7001290147241432393343529838603 427:1 34448:1 88665:1 95820:1 105928:1 122466:1 140542:1 141077:1 #
0.25839276899162699763223827176262 36720:1 40932:1 95820:1 108181:1 109900:1 128118:1 139515:1 140544:1 #
0.25837301721825295386381071693904 42470:1 76240:1 95820:1 108181:1 109900:1 128118:1 139515:1 140544:1 #
0.35273456024831800759145039592113 1341:1 30644:1 95820:1 108181:1 109900:1 113346:1 128118:1 140544:1 #
-0.12600445250656502893527033393184 1341:1 18261:1 73749:1 95820:1 109261:1 109901:1 110916:1 140544:1 #
-0.12600445250656419626800186506443 1341:1 68546:1 73749:1 95820:1 109901:1 110916:1 138472:1 140544:1 #
0.1973409836124485061681355091423 6777:1 11647:1 43744:1 51816:1 88665:1 95820:1 122466:1 140542:1 #
0.24292536037348358424203809136088 11372:1 52017:1 88665:1 95820:1 101013:1 122466:1 122550:1 140542:1 #
0.24289661821907274075194038687187 14266:1 81603:1 88665:1 95820:1 106916:1 122466:1 124498:1 140542:1 #
-0.086267058621159617426421561958705 9542:1 14357:1 88665:1 95559:1 95820:1 121872:1 122466:1 140542:1 #
0.78019195972371746528040148405125 1341:1 23890:1 89353:1 95820:1 109901:1 125862:1 126903:1 140546:1 #
-0.037770898551073690818657979662021 347:1 5116:1 43162:1 95820:1 102178:1 109901:1 122466:1 140545:1 #
-0.13352320555161295567714319076913 23890:1 39296:1 69961:1 95820:1 109901:1 125862:1 139519:1 140546:1 #
-0.41368317548251198889630586563726 1341:1 1502:1 23187:1 23890:1 95820:1 109901:1 125862:1 140546:1 #
0.3594231809274773814522063730692 1341:1 5124:1 23890:1 58919:1 95820:1 109901:1 125862:1 140546:1 #
-0.48003467127978605155647073843284 46725:1 53764:1 64405:1 78211:1 95820:1 97122:1 109900:1 140542:1 #
-0.25358692579804464894976945288363 26338:1 42470:1 81795:1 84533:1 95820:1 109900:1 139515:1 140542:1 #
-0.42367459255394390726934261692804 31109:1 81795:1 84533:1 95820:1 109900:1 117452:1 122455:1 140542:1 #
0.22560459835976223730291678748472 1341:1 18625:1 23187:1 24206:1 86890:1 88665:1 95820:1 140542:1 #
0.063671162344437537417007888507214 1341:1 25634:1 73869:1 95820:1 105424:1 137255:1 #
0.18000489268106389939561040591798 33976:1 51974:1 52251:1 88662:1 95820:1 104123:1 139521:1 140542:1 #
-0.1529700969205995131350306337481 11937:1 18733:1 34864:1 88665:1 93546:1 95820:1 122466:1 140543:1 #
-0.57017043610532336384011387053761 54913:1 58219:1 83484:1 95820:1 122466:1 128047:1 #
-0.046023690151387720848052964583985 232:1 57304:1 88665:1 95820:1 101051:1 103975:1 122466:1 140542:1 #
-0.74950090384469936211075946630444 20589:1 34864:1 41383:1 94168:1 95820:1 109901:1 122466:1 140544:1 #
-0.27127854055493150209343866663403 55507:1 95820:1 109901:1 115212:1 122466:1 122506:1 126476:1 140545:1 #
0.19341377080674584942876492732466 32472:1 53764:1 81795:1 84533:1 95820:1 109900:1 140542:1 142942:1 #
-0.44761817655422680983789973652165 64852:1 81795:1 84533:1 95820:1 109900:1 122455:1 129044:1 140542:1 #
-0.48169666393146348681852941808756 81795:1 84533:1 95820:1 109900:1 116064:1 122455:1 130203:1 140542:1 #
-0.42365860265906996051654687107657 81795:1 82865:1 84533:1 95550:1 95820:1 109900:1 122455:1 140542:1 #
-0.29392889455271892229504260285466 1341:1 82679:1 95820:1 108221:1 109901:1 135552:1 139505:1 140545:1 #
-0.24574554038190365989891006393009 95820:1 108221:1 109901:1 122458:1 131279:1 135552:1 137945:1 140545:1 #
-0.32836059332385403308762761298567 2726:1 7073:1 95820:1 108221:1 109901:1 135552:1 139515:1 140545:1 #
-0.13328308320140194731528993088432 27473:1 32786:1 95820:1 108221:1 109901:1 122466:1 135552:1 140545:1 #
-0.13326687523393251910697188122867 33059:1 95820:1 108221:1 109901:1 116667:1 122466:1 135552:1 140545:1 #
0.31579311210283678157395570451627 69558:1 83127:1 84660:1 95820:1 109900:1 122455:1 129152:1 140542:1 #
0.3113798356443227000056594988564 93725:1 95820:1 109291:1 109900:1 110447:1 122455:1 134061:1 140542:1 #
0.32949549883162321251006687816698 21208:1 36746:1 90453:1 95820:1 109900:1 113059:1 122455:1 140542:1 #
0.077258195234954613050959437714482 43966:1 50087:1 95820:1 109900:1 122455:1 122483:1 122570:1 140542:1 #
-0.22834998248728136105434316505125 46169:1 63561:1 69291:1 71052:1 95820:1 109900:1 139526:1 140542:1 #
-0.17301093304079198653688820286334 9865:1 53764:1 63561:1 71052:1 95820:1 109900:1 116743:1 140542:1 #
-0.87397061971895928511600004640059 14386:1 95820:1 109900:1 109992:1 111578:1 122960:1 139516:1 140542:1 #
-0.13037197322241853014723744763614 81795:1 84533:1 93725:1 95820:1 106842:1 109900:1 122455:1 140542:1 #
-0.25299205073718655789605236350326 8224:1 95820:1 109901:1 115947:1 122466:1 132256:1 134744:1 140544:1 #
-0.30679181640914077178194929729216 8224:1 31314:1 64039:1 95820:1 109901:1 115947:1 122466:1 140544:1 #
-0.25306506452801730278068248480849 8224:1 74363:1 95820:1 109901:1 115947:1 116386:1 122466:1 140544:1 #
-0.13329540539041229152417145087384 6239:1 39168:1 95820:1 108221:1 109901:1 122466:1 135552:1 140545:1 #
-0.13329540539041190294611283206905 63388:1 91106:1 95820:1 108221:1 109901:1 122466:1 135552:1 140545:1 #
0.76218555124557707536325779074105 452:1 25604:1 36116:1 49545:1 95820:1 109900:1 122458:1 140542:1 #
0.087150076225266451257489563886338 23178:1 41507:1 69017:1 95820:1 97436:1 109900:1 122455:1 140542:1 #
-0.13335218064087442368936820003 71057:1 81795:1 84533:1 95820:1 109900:1 111050:1 122458:1 140542:1 #
-0.39909381994528531079069466613873 81795:1 84533:1 95820:1 96638:1 109900:1 122458:1 132829:1 140542:1 #
-0.39905861977647544280856095610943 54615:1 74294:1 81795:1 84533:1 95820:1 109900:1 122458:1 140542:1 #
-0.19713682204821911247982768600195 42772:1 43784:1 81795:1 84533:1 95820:1 109900:1 122458:1 140542:1 #
-0.044345329271562330952782815529645 41920:1 88524:1 95820:1 109901:1 122466:1 122548:1 137355:1 140547:1 #
-0.044339255962240191333290084685359 12896:1 41920:1 54066:1 95820:1 109901:1 122466:1 137355:1 140547:1 #
-0.044362263217129029035934451030698 33824:1 41920:1 95820:1 97744:1 109901:1 122466:1 137355:1 140547:1 #
-0.044359600237944780964927105060269 4535:1 41920:1 72270:1 95820:1 109901:1 122466:1 137355:1 140547:1 #
-0.044362263217127599623790246141652 41920:1 95820:1 107016:1 109901:1 122466:1 137355:1 138135:1 140547:1 #
0.31994294072694923203314942838915 2172:1 81795:1 84533:1 95820:1 104012:1 109900:1 137830:1 140542:1 #
-0.22825618197219701976941053089831 25604:1 29812:1 32597:1 49545:1 95820:1 109900:1 139516:1 140542:1 #
-0.19945874937285115735541296544397 52996:1 81795:1 84533:1 94421:1 95820:1 109900:1 139519:1 140542:1 #
-0.36085766869096502773572865407914 49331:1 76481:1 81795:1 84533:1 95820:1 109900:1 139519:1 140542:1 #
-0.044309274792861681746547475313491 41920:1 93976:1 95820:1 107593:1 109901:1 122466:1 137355:1 140547:1 #
-0.044339959476831336537827610300155 10584:1 27152:1 41920:1 95820:1 109901:1 122466:1 137355:1 140547:1 #
-0.044385958711531975362518664951494 13480:1 41920:1 95820:1 109901:1 122466:1 137355:1 139569:1 140547:1 #
-0.48170377880744724707895443316374 61764:1 81795:1 84533:1 95820:1 98281:1 109900:1 122455:1 140542:1 #
-0.47485219650893228937604817474494 26790:1 81795:1 84533:1 95820:1 109900:1 122455:1 127984:1 140542:1 #
-0.28302494552914142511568229565455 78138:1 81795:1 84533:1 89762:1 95820:1 109900:1 122455:1 140542:1 #
-0.034720702493174479541515609071212 31127:1 57954:1 95820:1 102395:1 109901:1 110963:1 122466:1 140545:1 #
-0.081191242810271985197445587800757 88513:1 93504:1 95820:1 109896:1 125584:1 139334:1 139521:1 140542:1 #
-0.12182438627733604974423542444129 69938:1 93504:1 95820:1 109896:1 138618:1 139334:1 139521:1 140542:1 #
-0.29262947383014686897340084215102 16996:1 91619:1 95820:1 109901:1 117075:1 122466:1 137533:1 140545:1 #
-0.17228788882181475528021508125676 1341:1 17230:1 73631:1 95820:1 109901:1 130070:1 140545:1 142696:1 #
1 65782:1 67044:1 95820:1 109900:1 110219:1 122455:1 127984:1 140542:1 #
-0.57590427234644592235923710177303 22244:1 30806:1 65782:1 95820:1 109900:1 110219:1 122455:1 140542:1 #
-0.29688220012387267487952158262488 54918:1 81795:1 84533:1 95820:1 109900:1 122455:1 125629:1 140542:1 #
-0.45718483812847998670747529104119 23972:1 26721:1 81795:1 84533:1 95820:1 109900:1 122455:1 140542:1 #
-0.42367459255394668282690417981939 62605:1 81795:1 84533:1 88626:1 95820:1 109900:1 122455:1 140542:1 #
0.17832980944205353845966044445959 49321:1 54251:1 75666:1 90066:1 95820:1 139515:1 #
0.032034357929962307964810719340676 17969:1 20985:1 85635:1 88662:1 95820:1 117989:1 139515:1 140545:1 #
0.0017462867025397153103449809918857 17291:1 35737:1 42920:1 87039:1 95820:1 109900:1 122466:1 140548:1 #
0.13272668735166917586276724705385 36398:1 39024:1 85635:1 88662:1 95820:1 102088:1 139515:1 140543:1 #
-0.29709772247262006272805479056842 6912:1 9274:1 20999:1 95820:1 109901:1 134586:1 139515:1 140545:1 #
-0.49475621578854400706148908284376 6912:1 20999:1 26678:1 95820:1 104883:1 109901:1 122466:1 140545:1 #
-0.73240366475764073772580786680919 26083:1 47839:1 67572:1 80870:1 95820:1 96535:1 139515:1 140542:1 #
0.17427106553023355428599927563482 46259:1 76033:1 88934:1 95820:1 109900:1 122455:1 132915:1 140542:1 #
0.31826078858628048529055831750156 31365:1 75851:1 79039:1 95820:1 109900:1 122455:1 140542:1 142404:1 #
0.01066260595289917484373987122126 15149:1 43892:1 75666:1 90066:1 95820:1 122466:1 #
-0.70530497335850750317831625579856 1341:1 31365:1 75851:1 95820:1 98159:1 109900:1 132670:1 140542:1 #
-0.70530497335850927953515565604903 1341:1 10798:1 31365:1 75851:1 95820:1 109900:1 119731:1 140542:1 #
-0.48170763932337429258367933471163 31546:1 51406:1 81795:1 84533:1 95820:1 109900:1 122455:1 140542:1 #
-0.42370713558700612288987485953839 2534:1 57261:1 81795:1 84533:1 95820:1 109900:1 122455:1 140542:1 #
-0.015962657217176427770777280557013 41953:1 46935:1 73554:1 75768:1 95820:1 109901:1 122466:1 140545:1 #
0.19213985976218719842201210212806 27958:1 81737:1 88662:1 95820:1 106911:1 134011:1 139515:1 140545:1 #
-0.29874438484575344121552120668639 13115:1 20589:1 94168:1 95820:1 109901:1 111587:1 122466:1 140544:1 #
-0.29912677421758954166008948050148 20589:1 75505:1 81062:1 94168:1 95820:1 109901:1 122466:1 140544:1 #
0.24474545135541736495810027918196 17984:1 49896:1 72297:1 74169:1 95820:1 109901:1 111366:1 122455:1 #
-0.15232854664164413582838619731774 28423:1 41275:1 84200:1 95820:1 109901:1 139519:1 140545:1 142476:1 #
-0.10418197076866222983149157244043 23387:1 84200:1 95820:1 109901:1 131200:1 139519:1 140545:1 142476:1 #
0.45481101092109604833169100857049 31365:1 75851:1 76740:1 95820:1 109900:1 122466:1 131294:1 140542:1 #
0.45480254819904097907112827670062 27283:1 31365:1 71929:1 75851:1 95820:1 109900:1 122466:1 140542:1 #
0.45477050300947269301232722682471 31365:1 43712:1 54680:1 75851:1 95820:1 109900:1 122466:1 140542:1 #
0.45480254819904075702652335166931 31365:1 52175:1 75851:1 95820:1 107769:1 109900:1 122466:1 140542:1 #
0.45480127977567147423698656893976 13717:1 31365:1 75851:1 93015:1 95820:1 109900:1 122466:1 140542:1 #
-0.65109503193130358056350814877078 31365:1 43765:1 75851:1 95820:1 109900:1 121674:1 139521:1 140542:1 #
-0.79482103181868868357895507870126 95820:1 106462:1 109900:1 113877:1 116237:1 135081:1 139515:1 140542:1 #
-0.11629895680825758086385235401394 13295:1 14472:1 51076:1 95820:1 109900:1 122458:1 136209:1 140542:1 #
0.13171848454433757180659370078502 1341:1 55860:1 66597:1 80870:1 95820:1 116787:1 126699:1 140542:1 #
-0.27127320778185337601939863816369 55507:1 90824:1 95820:1 96204:1 109901:1 122466:1 126476:1 140545:1 #
-0.27127854055493161311574112914968 46533:1 55507:1 95820:1 109901:1 112126:1 122466:1 126476:1 140545:1 #
-0.27133519149507762113771036638354 28875:1 55507:1 55623:1 95820:1 109901:1 122466:1 126476:1 140545:1 #
-0.28328585539562689543657825197442 36989:1 77530:1 79214:1 95820:1 99131:1 109901:1 139519:1 140545:1 #
-0.13542402995376356944490225941991 43207:1 66765:1 77530:1 79214:1 95820:1 109901:1 139519:1 140545:1 #
1 14472:1 51076:1 67530:1 79404:1 95820:1 109900:1 122466:1 140542:1 #
0.31871071873542955454894354261342 1552:1 59143:1 81714:1 81795:1 84533:1 95820:1 109900:1 140542:1 #
-0.95173334739908854729151244100649 1341:1 79667:1 88662:1 95820:1 116787:1 127849:1 134154:1 140542:1 #
-0.33680497429862504832343006455631 1341:1 48659:1 88662:1 94912:1 95820:1 115156:1 139782:1 140542:1 #
-0.027703722982666163787701663068219 14122:1 16569:1 95820:1 98748:1 109900:1 129449:1 139515:1 140542:1 #
-0.63278007240020217594178575382102 79404:1 86699:1 95820:1 108221:1 109901:1 122466:1 135552:1 140545:1 #
-0.076034205463510709521735009275289 15668:1 34442:1 53349:1 95820:1 109901:1 122455:1 131979:1 140545:1 #
-0.031567603544287732575401861367936 4274:1 57954:1 91158:1 95820:1 102395:1 109901:1 122466:1 140545:1 #
0.85793763959677105113144079950871 74345:1 79667:1 85635:1 88662:1 95820:1 134154:1 139515:1 140542:1 #
0.34486111125695390056122846544895 31803:1 93397:1 95820:1 106252:1 109900:1 117843:1 139521:1 140542:1 #
0.43410068214565145083838615391869 12567:1 95820:1 109900:1 125463:1 129831:1 133837:1 139521:1 140542:1 #
0.010681128208109694210925511015375 43707:1 75666:1 90020:1 90066:1 95820:1 122466:1 #
-0.025955298543438021924290026731796 14472:1 50664:1 51076:1 95820:1 109900:1 110980:1 139519:1 140542:1 #
-0.030791987079977940766628563551421 14472:1 28732:1 51076:1 95820:1 109900:1 136932:1 139519:1 140542:1 #
-0.038564849780031239256938846438061 14472:1 51076:1 94832:1 95820:1 109900:1 118853:1 139519:1 140542:1 #
-0.075317637140031978848497828948894 14472:1 30934:1 39571:1 51076:1 95820:1 109900:1 139519:1 140542:1 #
-0.36108020650721051048037679720437 63820:1 69275:1 81795:1 84533:1 95820:1 109900:1 139519:1 140542:1 #
-0.13275307862587160112610717987991 7374:1 95820:1 108221:1 108715:1 109901:1 122466:1 135552:1 140545:1 #
-0.094179443177819080479373781145114 72811:1 91506:1 95820:1 108221:1 109901:1 122466:1 135552:1 140545:1 #
-0.1327530786258728223714342675521 30317:1 95820:1 108221:1 109901:1 122466:1 130329:1 135552:1 140545:1 #
-0.13277108394758663223456096602604 20436:1 95820:1 97287:1 108221:1 109901:1 122466:1 135552:1 140545:1 #
-0.13276330093061544657118133727636 5292:1 25238:1 95820:1 108221:1 109901:1 122466:1 135552:1 140545:1 #
0.36080238847692946979606176682864 28891:1 74781:1 95820:1 101173:1 109900:1 124231:1 139519:1 140542:1 #
0.36078125957665296841270219374564 16370:1 81733:1 95820:1 109900:1 114853:1 139519:1 140542:1 142222:1 #
0.5677838951404006184731088069384 23638:1 65782:1 84141:1 95820:1 109900:1 110219:1 139519:1 140542:1 #
-0.43174742155374157270841806166572 22346:1 65782:1 95820:1 106094:1 109900:1 110219:1 139519:1 140542:1 #
-0.43169375780143282028689100116026 11432:1 65782:1 95820:1 109900:1 110219:1 119273:1 139519:1 140542:1 #
-0.27550745402128978822631211187399 23828:1 78654:1 95820:1 109900:1 114037:1 139519:1 140542:1 141854:1 #
-0.54727512914407916433390255406266 1638:1 6047:1 46894:1 56812:1 95820:1 109896:1 122455:1 140542:1 #
-0.078713284310066952698115017028613 49877:1 52603:1 57954:1 95820:1 102395:1 109901:1 122466:1 140545:1 #
-0.11213195729617737861349979766601 57954:1 95820:1 98356:1 102395:1 102927:1 109901:1 139521:1 140545:1 #
-0.11213717875906632770455217951167 57954:1 75053:1 95820:1 102395:1 103389:1 109901:1 139521:1 140545:1 #
-0.11213717875906718812739626400798 57954:1 85234:1 95820:1 102395:1 109901:1 139521:1 140415:1 140545:1 #
-0.11213717875906695220500353116222 57954:1 65788:1 85069:1 95820:1 102395:1 109901:1 139521:1 140545:1 #
0.31848154523493521494970082130749 74168:1 88662:1 95820:1 115156:1 124413:1 139519:1 139782:1 140542:1 #
0.31848154523493515943854959004966 22794:1 66388:1 88662:1 95820:1 115156:1 139519:1 139782:1 140542:1 #
0.64223478945588441391123524226714 18606:1 65782:1 95820:1 109900:1 110219:1 122466:1 140542:1 141559:1 #
0.64223478945588496902274755484541 65782:1 95820:1 109900:1 110219:1 122466:1 127087:1 139972:1 140542:1 #
-0.22227301010032407546646027185488 25140:1 51974:1 88662:1 95820:1 129032:1 139521:1 140542:1 141007:1 #
-1 1552:1 43468:1 61191:1 76439:1 76587:1 88665:1 95820:1 140542:1 #
-0.64985512744932050210877605422866 39969:1 46532:1 74600:1 88665:1 95820:1 97455:1 122466:1 140542:1 #
-0.12836075966452789587357585787686 46935:1 57060:1 75768:1 95820:1 109901:1 112829:1 122458:1 140545:1 #
-0.029959753685878377088558366381221 5116:1 23992:1 28420:1 43162:1 95820:1 109901:1 122466:1 140545:1 #
-0.090336977155372741310479511867015 46935:1 75768:1 94729:1 95820:1 109901:1 121138:1 139519:1 140545:1 #
-0.12407199317384656755969274399831 17230:1 73631:1 95820:1 96617:1 109901:1 109908:1 122458:1 140545:1 #
-0.17651034199517998124484563504666 1341:1 26148:1 46935:1 65047:1 75768:1 95820:1 109901:1 140545:1 #
0.51744379364621406747204446219257 51974:1 76439:1 76587:1 88665:1 89851:1 95820:1 139521:1 140542:1 #
0.36427467168327448687747960320849 76439:1 76587:1 88665:1 93354:1 95820:1 132259:1 139521:1 140542:1 #
0.32008139001552510238823856525414 76439:1 76587:1 88665:1 90723:1 95820:1 118053:1 122466:1 140542:1 #
0.15994724077134597761684631223034 1341:1 76439:1 76587:1 88665:1 91369:1 95820:1 127896:1 140542:1 #
-1 39969:1 53156:1 88665:1 95820:1 97455:1 122466:1 137624:1 140542:1 #
-0.10549349703320577698040239056354 57624:1 64366:1 65782:1 95820:1 109900:1 110219:1 139521:1 140542:1 #
0.045121008338140609905675404434078 7982:1 32597:1 75666:1 90066:1 95820:1 139516:1 #
0.25535090632336515659162046176789 14067:1 65566:1 67192:1 83082:1 88665:1 95820:1 139521:1 140542:1 #
0.18976370888024818306405450130114 25069:1 26788:1 88665:1 95820:1 105333:1 131989:1 139521:1 140542:1 #
0.060587591822439786082288293300735 1341:1 61800:1 77170:1 88665:1 95820:1 127168:1 140542:1 141314:1 #
-0.65250404997574729115683567215456 1341:1 7851:1 15348:1 76439:1 76587:1 88665:1 95820:1 140542:1 #
-0.32770413951160570764642443464254 10590:1 36527:1 51974:1 70112:1 88665:1 95820:1 139521:1 140543:1 #
-0.37773417111551760294574364706932 1341:1 34454:1 59764:1 67247:1 88665:1 95820:1 104858:1 140542:1 #
-0.17893004101703907648968083776708 12866:1 22363:1 66567:1 88665:1 89175:1 95820:1 139521:1 140542:1 #
-0.025227372310865459753559392197531 15668:1 91158:1 95820:1 104371:1 109901:1 122466:1 131979:1 140545:1 #
0.70948732025363625552927260287106 46532:1 59989:1 75666:1 90066:1 95820:1 122466:1 #
0.17461958959454723649962204490294 18280:1 73045:1 84764:1 88665:1 95820:1 112879:1 122455:1 140542:1 #
0.17444988669749364462724372515368 42422:1 48141:1 62128:1 85930:1 88665:1 95820:1 122455:1 140542:1 #
0.30247616873401544923538608600211 3022:1 32116:1 57204:1 63620:1 88665:1 95820:1 122455:1 140542:1 #
0.17444972712356199284755575718009 26723:1 83316:1 88665:1 95820:1 96044:1 122264:1 122455:1 140542:1 #
0.061667574479183299984708099827913 4450:1 22989:1 66832:1 75241:1 88665:1 95820:1 139516:1 140543:1 #
-0.28377373113816189986735594175116 13251:1 19126:1 88477:1 88665:1 95648:1 95820:1 122466:1 140542:1 #
-0.17695282461780456606526001905877 28356:1 88665:1 91933:1 95820:1 100193:1 115397:1 122466:1 140542:1 #
-0.17695282461780439953180632528529 4072:1 74124:1 88665:1 95820:1 100193:1 115397:1 122466:1 140542:1 #
-0.25678890796818643060817066725576 44228:1 83905:1 88665:1 90562:1 95820:1 122466:1 140542:1 141674:1 #
0.0030906538189330169490165456380737 25894:1 35737:1 87039:1 95820:1 101448:1 109900:1 122466:1 140548:1 #
0.26263295859839475010488740736037 40092:1 75666:1 90066:1 95820:1 104247:1 139516:1 #
-0.058347599415441792070069482178951 15668:1 24213:1 95820:1 109901:1 124532:1 131979:1 139516:1 140545:1 #
-0.099177413026540914287032535412436 15668:1 28639:1 45259:1 95820:1 109901:1 131979:1 139516:1 140545:1 #
0.64225368504154534132766229959088 23869:1 65782:1 95820:1 109900:1 110219:1 122466:1 132285:1 140542:1 #
0.37306926187576533449075100179471 5596:1 42789:1 88665:1 95820:1 104052:1 122466:1 134487:1 140542:1 #
0.26297210247549807071720806561643 1918:1 39478:1 43980:1 77488:1 88665:1 95820:1 122466:1 140542:1 #
0.2429253603734840283312479414235 1198:1 57117:1 80572:1 88665:1 95820:1 122466:1 126786:1 140542:1 #
0.24312834937583743810662895157293 43062:1 59294:1 60778:1 88665:1 95820:1 122466:1 127313:1 140542:1 #
-0.28204057844275187694194073628751 5596:1 88665:1 89824:1 95820:1 111584:1 122466:1 134487:1 140542:1 #
-0.9974067273820685919361039850628 5596:1 37799:1 52812:1 88665:1 95820:1 122466:1 134487:1 140542:1 #
-0.042674802180558066289073337884474 12472:1 44289:1 88665:1 95820:1 114443:1 122466:1 135773:1 140542:1 #
-0.0024728636636188717178030938015354 41920:1 86008:1 95820:1 109901:1 112903:1 122466:1 137355:1 140547:1 #
0.034886991402548604701561174579183 75666:1 90066:1 95820:1 117501:1 122466:1 131826:1 #
0.025268914155227643197898501625787 75666:1 78902:1 90066:1 90278:1 95820:1 122466:1 #
0.011325732517957577683009873226183 75666:1 90066:1 95179:1 95820:1 117098:1 122466:1 #
0.01131882216890312681245589487844 62813:1 75666:1 90066:1 95820:1 122466:1 129787:1 #
-0.030031099145051812909779087590323 5116:1 22605:1 43162:1 57850:1 95820:1 109901:1 122466:1 140545:1 #
-0.045565515638584901114693792578692 20423:1 39867:1 54472:1 95820:1 109901:1 132106:1 139516:1 140546:1 #
0.36433065790826990593131995410658 5596:1 9084:1 88665:1 95820:1 97041:1 122466:1 134487:1 140542:1 #
0.37306926187576533449075100179471 5596:1 13710:1 68333:1 88665:1 95820:1 122466:1 134487:1 140542:1 #
0.26112141968045438078505071644031 5596:1 36924:1 88665:1 95820:1 122458:1 134487:1 135860:1 140542:1 #
0.28513729012241717519771100342041 16378:1 38976:1 65526:1 88665:1 95820:1 111203:1 122466:1 140542:1 #
-0.24657328046248155883901631568733 67239:1 88665:1 93266:1 95820:1 98595:1 119128:1 122466:1 140542:1 #
-0.17158286265241817769577892249799 35822:1 51108:1 88665:1 95602:1 95820:1 105365:1 122466:1 140542:1 #
0.52095222447002131893611931445776 1552:1 19711:1 88662:1 90117:1 95820:1 104667:1 108731:1 140543:1 #
-0.19819992179130527243380299751152 595:1 16934:1 47372:1 58546:1 95820:1 109901:1 139516:1 140536:1 #
-0.053317815606797200334021624712477 16934:1 47372:1 94871:1 95820:1 109901:1 125447:1 139516:1 140536:1 #
0.24293420546720606578716683543462 23424:1 24300:1 49952:1 88665:1 95820:1 122466:1 130941:1 140542:1 #
0.24293420546720598252043998854788 46497:1 58400:1 88665:1 89871:1 95820:1 122466:1 129959:1 140542:1 #
0.24298777475531527225705019645829 17326:1 57464:1 88665:1 95820:1 107497:1 122327:1 122466:1 140542:1 #
0.27540130675442375807193684522645 59072:1 88665:1 90978:1 93288:1 95820:1 96031:1 122466:1 140542:1 #
-0.37443035302101984607148210670857 39969:1 46532:1 74600:1 88665:1 95820:1 97455:1 122466:1 140542:1 #
-0.29400202806835928903694821201498 23627:1 36899:1 82185:1 88665:1 95820:1 137948:1 139519:1 140542:1 #
-0.318298299950677487935024601029 88665:1 94466:1 95820:1 98456:1 110268:1 114184:1 139519:1 140542:1 #
-0.14256904342667695018143092511309 16934:1 29995:1 47372:1 66572:1 95820:1 109901:1 122466:1 140536:1 #
-0.14246665071260186663515412419656 16934:1 47372:1 70941:1 95820:1 109901:1 122466:1 125074:1 140536:1 #
-0.14249389832773814990041216788086 16934:1 45677:1 47372:1 92706:1 95820:1 109901:1 122466:1 140536:1 #
-0.14246534639829316892800648020057 16934:1 47372:1 69054:1 95820:1 109901:1 113558:1 122466:1 140536:1 #
0.02587409962153978948418142636001 5596:1 47936:1 88665:1 95820:1 111552:1 134487:1 139515:1 140542:1 #
0.20276052780657152774246299031802 51431:1 88665:1 95820:1 104815:1 115635:1 123951:1 139516:1 140542:1 #
0.20260004504532899693991510048363 56257:1 88665:1 94500:1 95820:1 112813:1 131685:1 139516:1 140542:1 #
0.083817635589213360103322258964909 11890:1 88665:1 95820:1 111552:1 130089:1 139515:1 140542:1 142601:1 #
-0.50489318011221562265689044579631 79501:1 81795:1 84533:1 95820:1 109900:1 122455:1 139061:1 140542:1 #
-0.42364460265315323495016741617292 81795:1 84533:1 95820:1 109900:1 122455:1 124940:1 129102:1 140542:1 #
-0.42364458941093469102057156305818 81795:1 84533:1 95820:1 105091:1 109900:1 122455:1 128108:1 140542:1 #
-0.42365860265907134829532765252225 63157:1 81795:1 84533:1 91490:1 95820:1 109900:1 122455:1 140542:1 #
-0.48170399161459198644763546326431 16492:1 53559:1 81795:1 84533:1 95820:1 109900:1 122455:1 140542:1 #
-0.13858073757612557330709535108326 23890:1 91158:1 95820:1 109901:1 122466:1 124429:1 125862:1 140546:1 #
-0.40667881326566363009433757724764 53087:1 80908:1 88662:1 95820:1 125477:1 128540:1 139521:1 140542:1 #
-0.15498064045117984632859986504627 10001:1 54154:1 59545:1 87895:1 95820:1 109900:1 139521:1 140542:1 #
-0.15491093204943939820594778211671 41959:1 88217:1 95820:1 109900:1 127396:1 134226:1 139521:1 140542:1 #
0.11772161048666095195525116423596 23178:1 41507:1 55861:1 95820:1 109900:1 117058:1 139521:1 140542:1 #
0.60670297362518188499791449430631 19300:1 56832:1 67145:1 85304:1 95820:1 109900:1 122466:1 140542:1 #
0.44292862693637496951382104271033 42696:1 57379:1 95820:1 98039:1 104867:1 109900:1 122466:1 140542:1 #
0.39799318812607165085637461743318 43942:1 58340:1 95820:1 102583:1 109900:1 122466:1 133407:1 140542:1 #
-0.16638127959388634979909227240569 1715:1 91425:1 92215:1 95820:1 109900:1 122466:1 139215:1 140542:1 #
-0.46703629566092730307502733921865 19300:1 83507:1 85304:1 95820:1 109900:1 126599:1 139519:1 140542:1 #
-0.18575201023616425000106744391815 1341:1 9226:1 95820:1 99961:1 109901:1 126591:1 137519:1 140545:1 #
-0.10872869554958802806865492129873 9226:1 34414:1 78205:1 95820:1 99961:1 109901:1 139516:1 140545:1 #
-0.10543050464247724629096580883925 9226:1 37335:1 39463:1 95820:1 99961:1 109901:1 139516:1 140545:1 #
0.60670297362518166295330956927501 19300:1 73066:1 85304:1 95820:1 109293:1 109900:1 122466:1 140542:1 #
0.14684622308941730484121990230051 77170:1 88665:1 95820:1 119773:1 127168:1 128998:1 139519:1 140542:1 #
0.1463061815840583090864157611577 14409:1 77170:1 88665:1 95820:1 103117:1 127168:1 139519:1 140542:1 #
0.14630618158405797601950837361073 40760:1 45416:1 77170:1 88665:1 95820:1 127168:1 139519:1 140542:1 #
-0.25674817226365920230790607092786 12933:1 42604:1 88665:1 95820:1 104254:1 122466:1 140542:1 142558:1 #
-0.25677258646997136448675291831023 30256:1 45369:1 85060:1 88665:1 95643:1 95820:1 122466:1 140542:1 #
-0.25677258646997125346445045579458 7758:1 30170:1 88665:1 95820:1 110614:1 119685:1 122466:1 140542:1 #
-0.10309632172072263900375332923431 51245:1 51505:1 88665:1 95696:1 95820:1 122466:1 122901:1 140542:1 #
-0.10309632172072262512596552141986 51245:1 51505:1 76860:1 88665:1 95820:1 110591:1 122466:1 140542:1 #
0.033176531552526374035938516726674 10179:1 28088:1 75666:1 90066:1 95820:1 122466:1 #
-0.27441524576907966315175713134522 94619:1 95820:1 109900:1 115290:1 118723:1 129114:1 139521:1 140543:1 #
-0.25678890796818615305241451096663 25954:1 28292:1 40817:1 88665:1 90780:1 95820:1 122466:1 140542:1 #
-0.60088639926157938475625996943563 84739:1 95820:1 109900:1 119584:1 122466:1 122867:1 134847:1 140543:1 #
-0.01722192160130800453465838018019 35845:1 79774:1 85005:1 95820:1 105425:1 109901:1 122466:1 140544:1 #
-0.15798247313896807142441502946895 4441:1 22612:1 95820:1 109900:1 122458:1 129774:1 140542:1 141962:1 #
-0.15804004203505381265237872412399 11576:1 49839:1 59082:1 95820:1 109900:1 114965:1 122458:1 140542:1 #
-0.1580388596039217496969087051184 273:1 13760:1 95820:1 109900:1 122458:1 137141:1 140542:1 141168:1 #
0.39800680356578921337273868630291 16331:1 65660:1 95820:1 98367:1 109900:1 122466:1 127196:1 140542:1 #
0.45420704951435808549575767756323 32180:1 39893:1 42104:1 95820:1 109900:1 122466:1 125149:1 140542:1 #
0.39800248578853303360602922111866 9911:1 33667:1 95820:1 109900:1 111280:1 114622:1 122466:1 140542:1 #
0.31788128856003922129147554187512 55264:1 71909:1 76402:1 84116:1 95820:1 109900:1 122466:1 140542:1 #
0.29211840874209082929979786058539 1836:1 93822:1 95820:1 97582:1 109900:1 122466:1 133476:1 140542:1 #
0.18699283092566429398395655425702 448:1 49261:1 88665:1 95820:1 122458:1 127559:1 127761:1 140542:1 #
0.20110357312272647556383731171081 32582:1 51493:1 66650:1 88665:1 95820:1 104635:1 122458:1 140542:1 #
0.10872094887510005967179438357562 1341:1 21098:1 39859:1 88665:1 95820:1 102834:1 114945:1 140542:1 #
0.16260176981144247587707241109456 684:1 1341:1 60771:1 88665:1 95820:1 114686:1 140215:1 140542:1 #
0.16259943760986328431528136206907 1341:1 3624:1 51145:1 67871:1 88665:1 95820:1 99209:1 140542:1 #
-0.2318816731121128293935385045188 11569:1 21274:1 61892:1 88665:1 95820:1 122466:1 130141:1 140542:1 #
-0.25678890796818593100780958593532 17140:1 48485:1 59207:1 88665:1 95820:1 116632:1 122466:1 140542:1 #
-0.25682855012600908084507977946487 88665:1 95820:1 107620:1 109394:1 115409:1 122466:1 125574:1 140542:1 #
-0.25669552594606048767644779218244 17426:1 41517:1 56060:1 88665:1 95820:1 122466:1 131802:1 140542:1 #
0.096051539115061326801203733793955 75666:1 90066:1 95820:1 110268:1 135267:1 139519:1 #
0.10034016369292848847027954661826 1341:1 55560:1 65873:1 93265:1 95820:1 106150:1 121386:1 140542:1 #
-0.15049999965522933842443364937935 1341:1 78047:1 91078:1 95820:1 109900:1 116899:1 123648:1 140542:1 #
-0.18207834658652258252864442056307 1341:1 17837:1 59360:1 76795:1 95820:1 107154:1 109900:1 140542:1 #
-0.14255204483578071128491160379781 16934:1 42979:1 47372:1 95820:1 109901:1 121182:1 122466:1 140536:1 #
-0.14235382673506052908507513166114 16934:1 47372:1 77709:1 95820:1 109901:1 122466:1 132316:1 140536:1 #
-0.14311367055761720079587462350901 16934:1 34273:1 47372:1 52865:1 95820:1 109901:1 122466:1 140536:1 #
-0.29609259794407694066364911122946 16934:1 47372:1 52984:1 95820:1 108685:1 109901:1 122466:1 140536:1 #
0.16259943760986317329297889955342 1341:1 70602:1 87616:1 88665:1 95820:1 108725:1 138279:1 140542:1 #
0.16259943760986311778182766829559 571:1 1341:1 37542:1 88665:1 93515:1 95820:1 137185:1 140542:1 #
0.16262688573610523112833448067249 1341:1 17287:1 65827:1 77057:1 88665:1 88999:1 95820:1 140542:1 #
0.092008286920668425068470241967589 5982:1 30673:1 88665:1 95820:1 99284:1 101664:1 139515:1 140542:1 #
-0.17024850667575106011319974186335 25788:1 31125:1 40922:1 68509:1 95820:1 109900:1 122455:1 140542:1 #
-0.16265974145774542147790953094955 65240:1 90987:1 95820:1 108073:1 109900:1 122455:1 137523:1 140542:1 #
-0.11682185795222009561111775610698 17834:1 28878:1 93980:1 95820:1 109900:1 122455:1 140542:1 140773:1 #
-0.1425690434266777828486993939805 16934:1 22606:1 47372:1 95820:1 102939:1 109901:1 122466:1 140536:1 #
-0.14255204483578073904048721942672 16934:1 47372:1 95820:1 108659:1 109901:1 121694:1 122466:1 140536:1 #
-0.016804219508397753163331245218615 358:1 16934:1 47372:1 92130:1 95820:1 109901:1 122466:1 140536:1 #
0.31040897037341458331027865824581 7986:1 50297:1 88665:1 95414:1 95820:1 122455:1 130696:1 140542:1 #
0.014259404720725159937400050580436 24524:1 75666:1 90066:1 95820:1 122466:1 133860:1 #
-0.39192556198456224292314686863392 1341:1 48659:1 88662:1 94912:1 95820:1 115156:1 139782:1 140542:1 #
-0.24561733132797841649974657229905 51974:1 74165:1 77530:1 79214:1 95820:1 109901:1 139521:1 140545:1 #
0.060587591822439536282107752640513 1341:1 5742:1 10155:1 77170:1 88665:1 95820:1 127168:1 140542:1 #
0.060590742854136167561129866498959 1341:1 16168:1 30890:1 77170:1 88665:1 95820:1 127168:1 140542:1 #
0.018533944104286822346372431979944 6118:1 50687:1 95820:1 109897:1 122466:1 124687:1 132244:1 140542:1 #
-0.039153098955249196477801376659045 41920:1 92402:1 95820:1 109901:1 110913:1 122466:1 137355:1 140547:1 #
-0.36102555186148027610570920842292 71416:1 77114:1 81795:1 84533:1 95820:1 109900:1 139519:1 140542:1 #
-0.1935194567197014714476921426467 62516:1 81795:1 84533:1 95820:1 109900:1 126860:1 139519:1 140542:1 #
-0.36102286487247992052829204112641 13771:1 47434:1 81795:1 84533:1 95820:1 109900:1 139519:1 140542:1 #
0.10390622830405119025876103933115 66888:1 68104:1 75666:1 90066:1 95820:1 122466:1 #
-0.39905599260056201504909267896437 25607:1 81795:1 84533:1 95820:1 109900:1 111187:1 122458:1 140542:1 #
-0.019985173727718404806941165929857 80846:1 81544:1 93044:1 95820:1 109900:1 122466:1 124253:1 140543:1 #
-0.3669190971838161563489677519101 64022:1 81795:1 84533:1 86438:1 95820:1 109900:1 139516:1 140542:1 #
-0.3669190971838149351036406642379 4736:1 46789:1 81795:1 84533:1 95820:1 109900:1 139516:1 140542:1 #
-0.36680917159807407967875292342796 24041:1 62019:1 81795:1 84533:1 95820:1 109900:1 139516:1 140542:1 #
-0.36691909718381565674860667058965 4466:1 34057:1 81795:1 84533:1 95820:1 109900:1 139516:1 140542:1 #
-0.36687838573161857258497775546857 73661:1 81795:1 84533:1 95820:1 109900:1 124482:1 139516:1 140542:1 #
0.010482394908988628204338233729231 65491:1 75666:1 90066:1 95820:1 116792:1 122466:1 #
-0.029987321518082001720051366078224 70990:1 89259:1 95820:1 109901:1 121372:1 122466:1 134520:1 140549:1 #
0.010638706773199391175666050912696 1459:1 42714:1 75666:1 90066:1 95820:1 122466:1 #
-0.029988469149319334910996914800307 33419:1 76103:1 95820:1 109901:1 121372:1 122466:1 134520:1 140549:1 #
0.044564166213606162814109268310858 46608:1 50763:1 75666:1 90066:1 95820:1 122466:1 #
-0.36690655127712007432805307871604 68224:1 72605:1 81795:1 84533:1 95820:1 109900:1 139516:1 140542:1 #
-0.36701407461005175481005835536052 13178:1 27569:1 81795:1 84533:1 95820:1 109900:1 139516:1 140542:1 #
-0.36688915002239735896338856946386 19689:1 44861:1 81795:1 84533:1 95820:1 109900:1 139516:1 140542:1 #
-0.28473861554286528097179598262301 26790:1 81795:1 84533:1 95820:1 109900:1 122455:1 127984:1 140542:1 #
-0.46763157895544016362521233531879 19856:1 88651:1 95820:1 96716:1 122466:1 122588:1 131952:1 140545:1 #
-0.044339255962240121944351045613075 41920:1 92692:1 95820:1 99246:1 109901:1 122466:1 137355:1 140547:1 #
-0.40254693232139204805974941336899 8809:1 28451:1 88390:1 88665:1 95820:1 103753:1 122466:1 140542:1 #
-0.25682855012600913635623101072269 32876:1 47146:1 51801:1 88665:1 95820:1 122466:1 129850:1 140542:1 #
-0.36102555186148288512981707754079 31524:1 81795:1 84533:1 95820:1 109900:1 121313:1 139519:1 140542:1 #
-0.43996247844268582261051392379159 81795:1 83059:1 84533:1 95820:1 109900:1 128843:1 139519:1 140542:1 #
-0.044345329271561526041089962291153 41920:1 56288:1 81309:1 95820:1 109901:1 122466:1 137355:1 140547:1 #
-0.082161453507315157507306935258384 16455:1 41920:1 95820:1 109901:1 122466:1 137355:1 140303:1 140547:1 #
0.20575898680026610820803512069688 74031:1 76276:1 78765:1 88665:1 95424:1 95820:1 139519:1 140542:1 #
0.20575898680026644127494250824384 22130:1 78209:1 87337:1 88665:1 95820:1 113211:1 139519:1 140542:1 #
0.2057474902173652420156457765188 17797:1 32152:1 86716:1 88665:1 95820:1 139018:1 139519:1 140542:1 #
-0.37696730384709575822910210263217 81795:1 84533:1 93725:1 95820:1 106842:1 109900:1 122455:1 140542:1 #
-0.044385958711531087184098964826262 41920:1 51800:1 95820:1 109901:1 122466:1 128700:1 137355:1 140547:1 #
-0.044362263217127904935122018059701 41920:1 94599:1 95820:1 109901:1 116625:1 122466:1 137355:1 140547:1 #
-0.020056325864631283084627000334876 41920:1 71751:1 95820:1 106840:1 109901:1 122466:1 137355:1 140547:1 #
-0.044362263217127710646092708657307 16089:1 17038:1 41920:1 95820:1 109901:1 122466:1 137355:1 140547:1 #
-0.044339959476830795304103105536342 41920:1 78114:1 78593:1 95820:1 109901:1 122466:1 137355:1 140547:1 #
-0.36102286487248091972901420376729 16975:1 81795:1 84533:1 86927:1 95820:1 109900:1 139519:1 140542:1 #
-0.044339255962239990105366871375736 24693:1 41920:1 95820:1 103105:1 109901:1 122466:1 137355:1 140547:1 #
-0.039898272768468953652920561125939 30960:1 41920:1 87553:1 95820:1 109901:1 122466:1 137355:1 140547:1 #
-0.044339255962239497443899693962521 8807:1 37678:1 41920:1 95820:1 109901:1 122466:1 137355:1 140547:1 #
-0.066735322934635174507711496971751 35054:1 41920:1 44056:1 95820:1 109901:1 122466:1 137355:1 140547:1 #
-0.04438595871153207944592722355992 41920:1 65483:1 95820:1 106581:1 109901:1 122466:1 137355:1 140547:1 #
-0.2226810629055299972645087791534 14908:1 78845:1 99448:1 121077:1 124915:1 139526:1 #
-0.17809261382762384129385679898405 1341:1 18733:1 88665:1 93546:1 95820:1 116898:1 125871:1 140543:1 #
-0.39905599260056162647103406015958 15099:1 81795:1 84533:1 95820:1 109900:1 119125:1 122458:1 140542:1 #
-0.16559288952329853650269342324464 16934:1 47372:1 60696:1 95820:1 109901:1 113413:1 122466:1 140536:1 #
-0.14311367055761761712950885794271 16934:1 47372:1 88741:1 95820:1 109901:1 116065:1 122466:1 140536:1 #
-0.19887835227093883516680250522768 58877:1 81795:1 84533:1 95820:1 109900:1 115023:1 139516:1 140542:1 #
-0.12244023743566605222365950567109 63275:1 77530:1 79214:1 80177:1 95820:1 109901:1 122466:1 140545:1 #
-0.13327723799288820893949036872073 9441:1 95820:1 108221:1 109901:1 114238:1 122466:1 135552:1 140545:1 #
-0.13328308320140247467122662783368 59645:1 95820:1 108221:1 109901:1 114509:1 122466:1 135552:1 140545:1 #
-0.1332772379928881534283391374629 95820:1 100147:1 108221:1 109901:1 122466:1 126450:1 135552:1 140545:1 #
-0.13325785879012469470339397048519 95820:1 108221:1 109901:1 122466:1 134146:1 135552:1 140426:1 140545:1 #
-0.13327723799288873629542706567008 4575:1 40284:1 95820:1 108221:1 109901:1 122466:1 135552:1 140545:1 #
0.29156476687652888024615549511509 8809:1 56652:1 88390:1 88665:1 91025:1 95820:1 139515:1 140542:1 #
-0.22315211630933909359164601937664 20474:1 53122:1 77242:1 88665:1 95820:1 105679:1 122466:1 140542:1 #
0.21369832963308421636128286991152 311:1 43966:1 50087:1 95820:1 108071:1 109900:1 122466:1 140542:1 #
0.21369832963308380002764863547782 43966:1 50087:1 75385:1 95820:1 101758:1 109900:1 122466:1 140542:1 #
-0.16679243905468579822759522812703 9862:1 38785:1 88409:1 95820:1 109900:1 125000:1 139515:1 140542:1 #
-0.13309429089091642794961956042243 45755:1 92584:1 95820:1 109900:1 129244:1 139521:1 140542:1 141957:1 #
-0.15439863173722609412941153550491 14757:1 19465:1 33129:1 95820:1 109900:1 135846:1 139521:1 140542:1 #
0.20681259833995624397573465103051 7831:1 30088:1 77780:1 79239:1 88665:1 95820:1 139516:1 140542:1 #
-0.19868661763929054697719323030469 78138:1 81795:1 84533:1 89762:1 95820:1 109900:1 122455:1 140542:1 #
0.37582975731059492519037235069845 32311:1 54251:1 66100:1 88665:1 95820:1 139515:1 140542:1 141095:1 #
0.058396372725630710243116539004404 3631:1 34792:1 71523:1 88665:1 95820:1 105582:1 139515:1 140542:1 #
0.091851885395371882236936755816714 5556:1 45648:1 88665:1 95820:1 102885:1 116183:1 139515:1 140542:1 #
0.091840951863036354718694553866953 6882:1 27935:1 51244:1 70040:1 88665:1 95820:1 139515:1 140542:1 #
-0.25257728611156948783644793365966 358:1 48967:1 66670:1 88665:1 89052:1 95820:1 122466:1 140542:1 #
-0.15950200031689365509635081252782 70129:1 71464:1 85691:1 88841:1 95820:1 109900:1 139521:1 140542:1 #
0.035087332763066074459157306364432 54430:1 75666:1 90066:1 95820:1 103486:1 122466:1 #
0.034235587569456181478155798458829 37792:1 70282:1 75666:1 90066:1 95820:1 122466:1 #
-0.030590731460944091402165412318936 59368:1 95820:1 109901:1 110966:1 121372:1 122466:1 134520:1 140549:1 #
-0.086069280369956965848210472813662 54472:1 81873:1 95820:1 109901:1 131227:1 132106:1 139519:1 140546:1 #
-0.086069280369957090748300743143773 54472:1 83463:1 95820:1 109901:1 127151:1 132106:1 139519:1 140546:1 #
